/*
 * Academic License - for use in teaching, academic research, and meeting
 * course requirements at degree granting institutions only.  Not for
 * government, commercial, or other organizational use.
 * File: LSTMLayer.c
 *
 * MATLAB Coder version            : 24.2
 * C/C++ source code generated on  : 15-Nov-2024 02:25:16
 */

/* Include Files */
#include "LSTMLayer.h"
#include "NeuralNgin_rtwutil.h"
#include "elementwiseOperationInPlace.h"
#include "../fft/rt_nonfinite.h"

/* Function Definitions */
/*
 * Arguments    : const float X_data[]
 *                const float hiddenState[500]
 *                const float cellState[500]
 *                float Y[500]
 * Return Type  : void
 */
void LSTMLayer_predict(const float X_data[], const float hiddenState[500],
                       const float cellState[500], float Y[500])
{
  static const float gateBias[1500] = {-0.00606660405F,
                                       0.000820911664F,
                                       -0.000786528341F,
                                       -0.0055212318F,
                                       0.0074127866F,
                                       -0.00234039314F,
                                       -0.0058246F,
                                       -0.00777975F,
                                       -0.00542667275F,
                                       -0.0080248462F,
                                       -0.000399631303F,
                                       -0.00727228168F,
                                       -0.00462505687F,
                                       0.00378896389F,
                                       -0.00603017164F,
                                       -0.000819517358F,
                                       -0.00521559F,
                                       -0.0059013362F,
                                       -0.00845019519F,
                                       -0.00616397755F,
                                       -0.00545492768F,
                                       -0.00264749932F,
                                       -0.00704793958F,
                                       0.00243345345F,
                                       0.00276637147F,
                                       0.00275042513F,
                                       -0.00615254743F,
                                       -0.00952395331F,
                                       -0.00556152733F,
                                       -0.00760852685F,
                                       -0.00987259857F,
                                       -0.00658173766F,
                                       -0.00760710239F,
                                       0.00998553354F,
                                       -0.00503886212F,
                                       -0.00802084804F,
                                       -0.00192839606F,
                                       -0.000304818357F,
                                       -0.0061367061F,
                                       0.00438333955F,
                                       0.00216066558F,
                                       -0.00576209929F,
                                       -0.00843635295F,
                                       0.00222455F,
                                       0.00353824301F,
                                       -0.00633077463F,
                                       -0.00649619615F,
                                       -0.00134826091F,
                                       -0.00190276175F,
                                       -0.00150170922F,
                                       -0.00484820036F,
                                       0.00177950563F,
                                       -0.00389260985F,
                                       -0.00564329745F,
                                       -0.00822832F,
                                       0.000547036703F,
                                       0.00196469855F,
                                       -0.00136167207F,
                                       -0.0057766852F,
                                       0.0088890139F,
                                       0.00165303948F,
                                       -0.00763529632F,
                                       -0.00643808534F,
                                       0.00320158666F,
                                       -0.002200444F,
                                       -0.00723146088F,
                                       0.000751866843F,
                                       -0.00292796898F,
                                       -0.00914431643F,
                                       -0.0049641314F,
                                       0.00600319216F,
                                       -0.000923881773F,
                                       -0.00622305321F,
                                       -0.00636523729F,
                                       -0.00709802238F,
                                       -0.00872841757F,
                                       0.0131699303F,
                                       -0.00716662686F,
                                       -0.00565357646F,
                                       -0.0117917908F,
                                       -0.00277432846F,
                                       -0.00712448452F,
                                       -0.00296353805F,
                                       -0.00807443168F,
                                       -0.00943937246F,
                                       -0.000716071867F,
                                       -0.0022874698F,
                                       -0.00227046758F,
                                       -0.00675939396F,
                                       -0.0084543433F,
                                       0.000323742628F,
                                       0.00785225257F,
                                       -0.00155113195F,
                                       -0.00792022888F,
                                       -0.00266263331F,
                                       -0.00190563593F,
                                       0.000154630849F,
                                       -0.00851497427F,
                                       -0.0106246313F,
                                       -0.00542087946F,
                                       -0.00143142289F,
                                       -0.00165461539F,
                                       0.000973438728F,
                                       -0.00413909135F,
                                       -0.00886326749F,
                                       -0.00804211199F,
                                       -0.00578535F,
                                       -0.00586801255F,
                                       0.000654508418F,
                                       -0.0016653192F,
                                       6.82112432E-6F,
                                       -0.00822593458F,
                                       0.00832502078F,
                                       3.10575451E-5F,
                                       0.0124585181F,
                                       -0.00624941289F,
                                       -0.00304962136F,
                                       -0.00648668502F,
                                       -0.00350377662F,
                                       0.0114986151F,
                                       -0.00731917424F,
                                       -0.00633534975F,
                                       -0.00292419735F,
                                       -0.00441153115F,
                                       -0.00875640754F,
                                       -0.00582225947F,
                                       -0.00219955575F,
                                       0.00425983267F,
                                       -0.00829123612F,
                                       -0.00449375F,
                                       0.00163030042F,
                                       -0.00693283277F,
                                       -0.00635118F,
                                       -0.00664177118F,
                                       -0.00632663025F,
                                       -0.00609359425F,
                                       -0.00285591697F,
                                       -0.00815431401F,
                                       -0.00706051942F,
                                       0.00982608832F,
                                       0.0109477658F,
                                       -0.00731821125F,
                                       0.0205597561F,
                                       0.0106706442F,
                                       -0.00748823F,
                                       -0.00708236871F,
                                       -0.00241724215F,
                                       0.0120542571F,
                                       -0.00707957149F,
                                       0.00578912115F,
                                       -0.00367356581F,
                                       -0.00773639278F,
                                       0.000113126007F,
                                       -0.00171464111F,
                                       -0.0034100262F,
                                       -0.0061876839F,
                                       -0.00699023F,
                                       0.00508829625F,
                                       -0.00121841521F,
                                       0.000766141F,
                                       0.00678872317F,
                                       0.0152025754F,
                                       -0.00659319153F,
                                       -0.0066086282F,
                                       0.0016501582F,
                                       -0.0103149982F,
                                       0.00759162F,
                                       -0.00622622902F,
                                       -0.00251118676F,
                                       -0.0127329156F,
                                       -0.0021210236F,
                                       -0.00211622519F,
                                       -0.00500568841F,
                                       -0.00823875424F,
                                       -0.00201293174F,
                                       -0.00622746628F,
                                       -0.0058266758F,
                                       -0.00107699051F,
                                       -0.00513408752F,
                                       0.00578425173F,
                                       -0.00946764462F,
                                       -0.00623672735F,
                                       -0.00621353742F,
                                       0.00615744293F,
                                       0.00527572259F,
                                       -0.00946932193F,
                                       -0.00893515348F,
                                       0.00870251097F,
                                       -0.00301576988F,
                                       -0.00944492593F,
                                       0.00325854705F,
                                       -0.000780783826F,
                                       -0.0060903728F,
                                       -0.00110827351F,
                                       -0.000326963636F,
                                       -0.00628976338F,
                                       0.00988377538F,
                                       -0.00322171394F,
                                       -0.00702567771F,
                                       -0.0024507679F,
                                       -0.00692937849F,
                                       -0.00671372749F,
                                       -0.0111064641F,
                                       -0.00642807642F,
                                       0.0026381521F,
                                       -0.00216889568F,
                                       -0.00176809228F,
                                       -0.00852748659F,
                                       -0.000795027416F,
                                       -0.00625988934F,
                                       -0.00686483271F,
                                       0.000289236777F,
                                       0.00695512863F,
                                       0.00194045901F,
                                       0.000987765379F,
                                       0.0110186189F,
                                       -0.00706199231F,
                                       -0.00631976314F,
                                       -0.00632453337F,
                                       0.00325043662F,
                                       -0.00912979711F,
                                       -0.00108662108F,
                                       -0.00783480704F,
                                       -0.00633223215F,
                                       -0.00639993325F,
                                       -0.00766955595F,
                                       0.00579963F,
                                       -0.00718266889F,
                                       0.00327202678F,
                                       0.0042827446F,
                                       -0.000221881564F,
                                       -0.00745052099F,
                                       -0.00750941224F,
                                       -0.00265017222F,
                                       -0.00846341811F,
                                       -0.00671118731F,
                                       -0.00144720892F,
                                       -0.00601608679F,
                                       -0.00291893212F,
                                       -0.00487649441F,
                                       -0.00680946745F,
                                       -0.0038182654F,
                                       0.000458181F,
                                       -0.00547889527F,
                                       -0.00888664648F,
                                       -0.00289268512F,
                                       0.00203244924F,
                                       -0.00320592546F,
                                       -0.0052118958F,
                                       -0.00680954F,
                                       0.0206388645F,
                                       -0.00647474173F,
                                       -0.0023933237F,
                                       0.00293137808F,
                                       -0.00053272245F,
                                       -0.00836069323F,
                                       -0.00397689873F,
                                       -0.00196734536F,
                                       -0.00388494274F,
                                       0.0143378815F,
                                       -0.00706209848F,
                                       -0.003613282F,
                                       0.000984247308F,
                                       -0.00843152F,
                                       -0.00532871345F,
                                       0.0127858659F,
                                       -0.00679146638F,
                                       0.000359738362F,
                                       -0.0023712432F,
                                       0.00734414533F,
                                       -0.0046768887F,
                                       -0.00456976611F,
                                       -0.00385781191F,
                                       -0.00615470577F,
                                       -0.00543801719F,
                                       0.0106404489F,
                                       -0.00521179801F,
                                       -0.00652934751F,
                                       0.00145158661F,
                                       -0.00728878425F,
                                       -0.00497276429F,
                                       -0.00209255377F,
                                       -0.00394331384F,
                                       -0.00711914524F,
                                       -0.00746266544F,
                                       0.00429845555F,
                                       -0.00754155871F,
                                       -0.0073565077F,
                                       -0.00760369422F,
                                       -0.00571544655F,
                                       -0.00884051062F,
                                       -0.00194825279F,
                                       -0.00622963579F,
                                       -0.000290968339F,
                                       0.00464860722F,
                                       -0.000221867682F,
                                       -0.00803374F,
                                       -0.00649359822F,
                                       -0.00654994417F,
                                       0.00435088202F,
                                       -0.00800927822F,
                                       -0.00780578F,
                                       -0.000678297889F,
                                       -0.00628404971F,
                                       0.00796165597F,
                                       -0.000846265291F,
                                       -0.0022746881F,
                                       -0.00760680065F,
                                       -0.00745416293F,
                                       -0.00855804887F,
                                       -0.00589030934F,
                                       -0.00782104675F,
                                       0.00210038107F,
                                       -0.00230643363F,
                                       -0.00753511675F,
                                       -0.00719965575F,
                                       -0.00822429825F,
                                       0.014434143F,
                                       0.0102700805F,
                                       -0.0067664776F,
                                       -0.0050575058F,
                                       0.00307461387F,
                                       0.00445304718F,
                                       0.00309088943F,
                                       -0.00875262637F,
                                       -0.0074073174F,
                                       -0.00882131234F,
                                       0.000211240971F,
                                       -0.000730766682F,
                                       -0.00637991866F,
                                       0.00653622625F,
                                       -0.00677697081F,
                                       -0.00631438754F,
                                       0.0100241425F,
                                       -0.00243316661F,
                                       0.00731573952F,
                                       -0.00148219103F,
                                       0.000406108069F,
                                       -0.00605588732F,
                                       -0.00926608406F,
                                       0.00776813179F,
                                       -0.00448597362F,
                                       -0.00228426745F,
                                       -0.00359874824F,
                                       -0.00596296089F,
                                       -0.00617035F,
                                       0.00426876452F,
                                       -0.00608535297F,
                                       -0.00775398593F,
                                       0.00393468793F,
                                       -0.00853630062F,
                                       0.0029252572F,
                                       -0.000941656937F,
                                       0.0100576617F,
                                       -0.00136017788F,
                                       -0.00874871F,
                                       -0.00222371146F,
                                       0.00196407363F,
                                       -0.00563284289F,
                                       0.000100945341F,
                                       -0.00899079628F,
                                       -0.00365025364F,
                                       -0.00887196884F,
                                       -0.00141152437F,
                                       0.00137740909F,
                                       0.00114794867F,
                                       -0.00854013953F,
                                       -0.00575717585F,
                                       -0.00607468234F,
                                       -0.00778809655F,
                                       -0.00872900896F,
                                       -0.00616063643F,
                                       -0.00607336545F,
                                       -0.00111522013F,
                                       -0.00309360656F,
                                       -0.0062889345F,
                                       0.0101292878F,
                                       -0.00728825F,
                                       -0.00468986202F,
                                       -0.006314578F,
                                       0.00642326055F,
                                       -0.00353822182F,
                                       -0.00139362167F,
                                       0.000618113903F,
                                       -0.0018646298F,
                                       -0.00778407417F,
                                       -0.000512646744F,
                                       0.00541538093F,
                                       -0.00012538681F,
                                       -0.00615419354F,
                                       0.00812785327F,
                                       -0.00777637865F,
                                       -0.00695264619F,
                                       -0.00734748598F,
                                       -0.01049932F,
                                       0.0106596639F,
                                       0.0111238034F,
                                       0.000806741824F,
                                       2.97503229E-5F,
                                       -0.00230211578F,
                                       -0.00970784947F,
                                       -0.00742662046F,
                                       -0.00626983261F,
                                       -0.0069189216F,
                                       0.00225560507F,
                                       -0.00132960919F,
                                       0.00737169804F,
                                       -0.00163748104F,
                                       -0.00579473516F,
                                       0.000527050463F,
                                       -0.0085745519F,
                                       0.00983223598F,
                                       -0.00395045336F,
                                       -0.00726905791F,
                                       -0.00669638719F,
                                       -0.00867102668F,
                                       0.00145087508F,
                                       -0.00502851792F,
                                       -0.00147109688F,
                                       -0.0073275161F,
                                       -0.0086048618F,
                                       -0.00513260253F,
                                       -0.000819273409F,
                                       -0.00420913799F,
                                       -0.00601186F,
                                       -0.00670831883F,
                                       -0.00606838F,
                                       -0.0082406532F,
                                       -0.00185146334F,
                                       -0.00280138478F,
                                       -0.00220627291F,
                                       -0.00121053599F,
                                       -0.0121274125F,
                                       0.00206970656F,
                                       0.00460704882F,
                                       0.00395802688F,
                                       -0.00596312946F,
                                       0.00434111711F,
                                       0.0113618346F,
                                       -0.00443438347F,
                                       -0.00611893181F,
                                       0.00108051801F,
                                       0.00676446082F,
                                       -0.000407237385F,
                                       -0.00670714304F,
                                       -0.00650539668F,
                                       -0.00768390857F,
                                       -0.00775241479F,
                                       -0.00802903622F,
                                       -0.00444556493F,
                                       -0.00635573128F,
                                       -0.000423804449F,
                                       -0.00863190182F,
                                       -0.00645953836F,
                                       -0.00120555225F,
                                       -0.00114588696F,
                                       -0.00584003655F,
                                       -0.000195044442F,
                                       -0.00447888672F,
                                       -0.00623654295F,
                                       0.00515731238F,
                                       -0.00555445487F,
                                       -0.00455717091F,
                                       -0.00603855F,
                                       -0.0011621092F,
                                       0.00811844412F,
                                       -0.00571161648F,
                                       -0.00712258974F,
                                       -0.00579417497F,
                                       0.00245502288F,
                                       -0.00961186364F,
                                       -0.00858374313F,
                                       -0.00554490555F,
                                       -0.00708769821F,
                                       -0.00663848687F,
                                       -0.00681253616F,
                                       0.00701813167F,
                                       -0.00786421075F,
                                       0.00411531562F,
                                       0.00128775195F,
                                       0.000790644786F,
                                       -0.00754116802F,
                                       -0.00808413513F,
                                       -0.00440950086F,
                                       -0.0025464287F,
                                       -0.00438772282F,
                                       -0.00488387188F,
                                       -0.00599858537F,
                                       -0.00212565716F,
                                       0.00295258546F,
                                       0.00481058471F,
                                       -0.00868256111F,
                                       -0.00376710016F,
                                       -0.00712178182F,
                                       -0.00808619335F,
                                       -0.00611638185F,
                                       -0.005862277F,
                                       -0.00631477F,
                                       -0.00212099822F,
                                       0.000559873239F,
                                       1.0F,
                                       1.0F,
                                       1.0F,
                                       1.0F,
                                       1.0F,
                                       1.0F,
                                       1.0F,
                                       1.0F,
                                       1.0F,
                                       1.0F,
                                       1.0F,
                                       1.0F,
                                       1.0F,
                                       1.0F,
                                       1.0F,
                                       1.0F,
                                       1.0F,
                                       1.0F,
                                       1.0F,
                                       1.0F,
                                       1.0F,
                                       1.0F,
                                       1.0F,
                                       1.0F,
                                       1.0F,
                                       1.0F,
                                       1.0F,
                                       1.0F,
                                       1.0F,
                                       1.0F,
                                       1.0F,
                                       1.0F,
                                       1.0F,
                                       1.0F,
                                       1.0F,
                                       1.0F,
                                       1.0F,
                                       1.0F,
                                       1.0F,
                                       1.0F,
                                       1.0F,
                                       1.0F,
                                       1.0F,
                                       1.0F,
                                       1.0F,
                                       1.0F,
                                       1.0F,
                                       1.0F,
                                       1.0F,
                                       1.0F,
                                       1.0F,
                                       1.0F,
                                       1.0F,
                                       1.0F,
                                       1.0F,
                                       1.0F,
                                       1.0F,
                                       1.0F,
                                       1.0F,
                                       1.0F,
                                       1.0F,
                                       1.0F,
                                       1.0F,
                                       1.0F,
                                       1.0F,
                                       1.0F,
                                       1.0F,
                                       1.0F,
                                       1.0F,
                                       1.0F,
                                       1.0F,
                                       1.0F,
                                       1.0F,
                                       1.0F,
                                       1.0F,
                                       1.0F,
                                       1.0F,
                                       1.0F,
                                       1.0F,
                                       1.0F,
                                       1.0F,
                                       1.0F,
                                       1.0F,
                                       1.0F,
                                       1.0F,
                                       1.0F,
                                       1.0F,
                                       1.0F,
                                       1.0F,
                                       1.0F,
                                       1.0F,
                                       1.0F,
                                       1.0F,
                                       1.0F,
                                       1.0F,
                                       1.0F,
                                       1.0F,
                                       1.0F,
                                       1.0F,
                                       1.0F,
                                       1.0F,
                                       1.0F,
                                       1.0F,
                                       1.0F,
                                       1.0F,
                                       1.0F,
                                       1.0F,
                                       1.0F,
                                       1.0F,
                                       1.0F,
                                       1.0F,
                                       1.0F,
                                       1.0F,
                                       1.0F,
                                       1.0F,
                                       1.0F,
                                       1.0F,
                                       1.0F,
                                       1.0F,
                                       1.0F,
                                       1.0F,
                                       1.0F,
                                       1.0F,
                                       1.0F,
                                       1.0F,
                                       1.0F,
                                       1.0F,
                                       1.0F,
                                       1.0F,
                                       1.0F,
                                       1.0F,
                                       1.0F,
                                       1.0F,
                                       1.0F,
                                       1.0F,
                                       1.0F,
                                       1.0F,
                                       1.0F,
                                       1.0F,
                                       1.0F,
                                       1.0F,
                                       1.0F,
                                       1.0F,
                                       1.0F,
                                       1.0F,
                                       1.0F,
                                       1.0F,
                                       1.0F,
                                       1.0F,
                                       1.0F,
                                       1.0F,
                                       1.0F,
                                       1.0F,
                                       1.0F,
                                       1.0F,
                                       1.0F,
                                       1.0F,
                                       1.0F,
                                       1.0F,
                                       1.0F,
                                       1.0F,
                                       1.0F,
                                       1.0F,
                                       1.0F,
                                       1.0F,
                                       1.0F,
                                       1.0F,
                                       1.0F,
                                       1.0F,
                                       1.0F,
                                       1.0F,
                                       1.0F,
                                       1.0F,
                                       1.0F,
                                       1.0F,
                                       1.0F,
                                       1.0F,
                                       1.0F,
                                       1.0F,
                                       1.0F,
                                       1.0F,
                                       1.0F,
                                       1.0F,
                                       1.0F,
                                       1.0F,
                                       1.0F,
                                       1.0F,
                                       1.0F,
                                       1.0F,
                                       1.0F,
                                       1.0F,
                                       1.0F,
                                       1.0F,
                                       1.0F,
                                       1.0F,
                                       1.0F,
                                       1.0F,
                                       1.0F,
                                       1.0F,
                                       1.0F,
                                       1.0F,
                                       1.0F,
                                       1.0F,
                                       1.0F,
                                       1.0F,
                                       1.0F,
                                       1.0F,
                                       1.0F,
                                       1.0F,
                                       1.0F,
                                       1.0F,
                                       1.0F,
                                       1.0F,
                                       1.0F,
                                       1.0F,
                                       1.0F,
                                       1.0F,
                                       1.0F,
                                       1.0F,
                                       1.0F,
                                       1.0F,
                                       1.0F,
                                       1.0F,
                                       1.0F,
                                       1.0F,
                                       1.0F,
                                       1.0F,
                                       1.0F,
                                       1.0F,
                                       1.0F,
                                       1.0F,
                                       1.0F,
                                       1.0F,
                                       1.0F,
                                       1.0F,
                                       1.0F,
                                       1.0F,
                                       1.0F,
                                       1.0F,
                                       1.0F,
                                       1.0F,
                                       1.0F,
                                       1.0F,
                                       1.0F,
                                       1.0F,
                                       1.0F,
                                       1.0F,
                                       1.0F,
                                       1.0F,
                                       1.0F,
                                       1.0F,
                                       1.0F,
                                       1.0F,
                                       1.0F,
                                       1.0F,
                                       1.0F,
                                       1.0F,
                                       1.0F,
                                       1.0F,
                                       1.0F,
                                       1.0F,
                                       1.0F,
                                       1.0F,
                                       1.0F,
                                       1.0F,
                                       1.0F,
                                       1.0F,
                                       1.0F,
                                       1.0F,
                                       1.0F,
                                       1.0F,
                                       1.0F,
                                       1.0F,
                                       1.0F,
                                       1.0F,
                                       1.0F,
                                       1.0F,
                                       1.0F,
                                       1.0F,
                                       1.0F,
                                       1.0F,
                                       1.0F,
                                       1.0F,
                                       1.0F,
                                       1.0F,
                                       1.0F,
                                       1.0F,
                                       1.0F,
                                       1.0F,
                                       1.0F,
                                       1.0F,
                                       1.0F,
                                       1.0F,
                                       1.0F,
                                       1.0F,
                                       1.0F,
                                       1.0F,
                                       1.0F,
                                       1.0F,
                                       1.0F,
                                       1.0F,
                                       1.0F,
                                       1.0F,
                                       1.0F,
                                       1.0F,
                                       1.0F,
                                       1.0F,
                                       1.0F,
                                       1.0F,
                                       1.0F,
                                       1.0F,
                                       1.0F,
                                       1.0F,
                                       1.0F,
                                       1.0F,
                                       1.0F,
                                       1.0F,
                                       1.0F,
                                       1.0F,
                                       1.0F,
                                       1.0F,
                                       1.0F,
                                       1.0F,
                                       1.0F,
                                       1.0F,
                                       1.0F,
                                       1.0F,
                                       1.0F,
                                       1.0F,
                                       1.0F,
                                       1.0F,
                                       1.0F,
                                       1.0F,
                                       1.0F,
                                       1.0F,
                                       1.0F,
                                       1.0F,
                                       1.0F,
                                       1.0F,
                                       1.0F,
                                       1.0F,
                                       1.0F,
                                       1.0F,
                                       1.0F,
                                       1.0F,
                                       1.0F,
                                       1.0F,
                                       1.0F,
                                       1.0F,
                                       1.0F,
                                       1.0F,
                                       1.0F,
                                       1.0F,
                                       1.0F,
                                       1.0F,
                                       1.0F,
                                       1.0F,
                                       1.0F,
                                       1.0F,
                                       1.0F,
                                       1.0F,
                                       1.0F,
                                       1.0F,
                                       1.0F,
                                       1.0F,
                                       1.0F,
                                       1.0F,
                                       1.0F,
                                       1.0F,
                                       1.0F,
                                       1.0F,
                                       1.0F,
                                       1.0F,
                                       1.0F,
                                       1.0F,
                                       1.0F,
                                       1.0F,
                                       1.0F,
                                       1.0F,
                                       1.0F,
                                       1.0F,
                                       1.0F,
                                       1.0F,
                                       1.0F,
                                       1.0F,
                                       1.0F,
                                       1.0F,
                                       1.0F,
                                       1.0F,
                                       1.0F,
                                       1.0F,
                                       1.0F,
                                       1.0F,
                                       1.0F,
                                       1.0F,
                                       1.0F,
                                       1.0F,
                                       1.0F,
                                       1.0F,
                                       1.0F,
                                       1.0F,
                                       1.0F,
                                       1.0F,
                                       1.0F,
                                       1.0F,
                                       1.0F,
                                       1.0F,
                                       1.0F,
                                       1.0F,
                                       1.0F,
                                       1.0F,
                                       1.0F,
                                       1.0F,
                                       1.0F,
                                       1.0F,
                                       1.0F,
                                       1.0F,
                                       1.0F,
                                       1.0F,
                                       1.0F,
                                       1.0F,
                                       1.0F,
                                       1.0F,
                                       1.0F,
                                       1.0F,
                                       1.0F,
                                       1.0F,
                                       1.0F,
                                       1.0F,
                                       1.0F,
                                       1.0F,
                                       1.0F,
                                       1.0F,
                                       1.0F,
                                       1.0F,
                                       1.0F,
                                       1.0F,
                                       1.0F,
                                       1.0F,
                                       1.0F,
                                       1.0F,
                                       1.0F,
                                       1.0F,
                                       1.0F,
                                       1.0F,
                                       1.0F,
                                       1.0F,
                                       1.0F,
                                       1.0F,
                                       1.0F,
                                       1.0F,
                                       1.0F,
                                       1.0F,
                                       1.0F,
                                       1.0F,
                                       1.0F,
                                       1.0F,
                                       1.0F,
                                       1.0F,
                                       1.0F,
                                       1.0F,
                                       1.0F,
                                       1.0F,
                                       1.0F,
                                       1.0F,
                                       1.0F,
                                       1.0F,
                                       1.0F,
                                       1.0F,
                                       1.0F,
                                       1.0F,
                                       1.0F,
                                       1.0F,
                                       1.0F,
                                       1.0F,
                                       1.0F,
                                       1.0F,
                                       1.0F,
                                       1.0F,
                                       1.0F,
                                       1.0F,
                                       1.0F,
                                       1.0F,
                                       1.0F,
                                       1.0F,
                                       1.0F,
                                       1.0F,
                                       1.0F,
                                       1.0F,
                                       1.0F,
                                       1.0F,
                                       1.0F,
                                       1.0F,
                                       1.0F,
                                       1.0F,
                                       1.0F,
                                       1.0F,
                                       1.0F,
                                       1.0F,
                                       1.0F,
                                       -0.00610401062F,
                                       0.00372525468F,
                                       -0.00122066494F,
                                       -0.00563822454F,
                                       0.000583428773F,
                                       -0.001814852F,
                                       -0.00566733256F,
                                       -0.00745000597F,
                                       -0.00509019196F,
                                       -0.00777215185F,
                                       -0.00094468391F,
                                       -0.00672197435F,
                                       -0.00447661F,
                                       0.0115399482F,
                                       -0.00601814315F,
                                       -0.00247683399F,
                                       -0.00517441845F,
                                       -0.00321229617F,
                                       -0.00864168F,
                                       -0.00610400643F,
                                       -0.00705874246F,
                                       -0.00287575345F,
                                       0.00151193643F,
                                       -0.00191277638F,
                                       0.000358217192F,
                                       -0.000586650684F,
                                       -0.00609453209F,
                                       -0.00931148604F,
                                       -0.00548527669F,
                                       -0.00905943569F,
                                       -0.0100948624F,
                                       -0.00614994438F,
                                       -0.00796701666F,
                                       -0.00520630972F,
                                       -0.0020586953F,
                                       -0.00853435788F,
                                       0.000791825936F,
                                       -0.00308508682F,
                                       -0.00635809544F,
                                       0.00479124906F,
                                       0.00537093636F,
                                       -0.00434974721F,
                                       -0.00697763218F,
                                       0.00517802313F,
                                       0.003638322F,
                                       -0.00611513527F,
                                       -0.0078859441F,
                                       -0.00127305451F,
                                       0.000311033102F,
                                       -0.00159286393F,
                                       -0.00350878178F,
                                       0.0135037657F,
                                       -0.00223483541F,
                                       -0.00696108397F,
                                       -0.00853415299F,
                                       -0.00180870341F,
                                       0.00315753743F,
                                       0.00559653714F,
                                       -0.00574738486F,
                                       -0.008751099F,
                                       -0.00295337173F,
                                       -0.00651583867F,
                                       -0.00544101372F,
                                       -0.0012372504F,
                                       0.00491918577F,
                                       -0.00898884889F,
                                       0.00283180689F,
                                       -0.0043624267F,
                                       -0.00861081481F,
                                       -0.00521804F,
                                       0.00598878413F,
                                       -0.000435047667F,
                                       -0.0061825919F,
                                       -0.006383284F,
                                       -0.00704543386F,
                                       -0.00835433F,
                                       -0.00333606941F,
                                       -0.00867112726F,
                                       -0.00563499285F,
                                       -0.0100411251F,
                                       0.00463659F,
                                       -0.00672629429F,
                                       -0.00266602309F,
                                       -0.00670160586F,
                                       -0.00983951893F,
                                       0.00322793704F,
                                       -0.00166919013F,
                                       0.000804451352F,
                                       -0.00608498417F,
                                       -0.00814869162F,
                                       -0.00231856806F,
                                       0.00732659549F,
                                       -0.000250291836F,
                                       -0.0075108991F,
                                       -0.00290163979F,
                                       0.00102200231F,
                                       -0.00191766489F,
                                       -0.00852716062F,
                                       -0.0114768958F,
                                       -0.00516744284F,
                                       0.000360254198F,
                                       -0.0018014427F,
                                       0.00346800778F,
                                       -0.00570621295F,
                                       -0.00740613462F,
                                       -0.00420373445F,
                                       -0.00541446265F,
                                       -0.00601856876F,
                                       -0.00432738336F,
                                       -0.00208111689F,
                                       -0.000634644704F,
                                       -0.00853696372F,
                                       0.00498306053F,
                                       -0.00232915441F,
                                       0.0127416765F,
                                       -0.00607855665F,
                                       -0.00173855422F,
                                       -0.00656363787F,
                                       -0.00345383654F,
                                       0.0121801281F,
                                       -0.0074704187F,
                                       -0.00605337834F,
                                       -0.00103832025F,
                                       -0.00552849192F,
                                       -0.00865311548F,
                                       -3.59583282E-5F,
                                       -0.000588048657F,
                                       0.00545589F,
                                       -0.00634394214F,
                                       -0.00573312677F,
                                       0.00467334175F,
                                       -0.00671057915F,
                                       -0.00668149767F,
                                       -0.00728684524F,
                                       -0.00665885629F,
                                       -0.0060058767F,
                                       -0.00304671F,
                                       -0.00811905321F,
                                       -0.00702876924F,
                                       0.0130560631F,
                                       0.0107379816F,
                                       -0.00665660854F,
                                       0.0191133227F,
                                       0.0111415563F,
                                       -0.00822586473F,
                                       -0.00656042621F,
                                       -0.00204172265F,
                                       0.0092036F,
                                       -0.00645588152F,
                                       0.00639056833F,
                                       -0.00423040427F,
                                       -0.00664020702F,
                                       -0.00373352831F,
                                       -0.000559580629F,
                                       -0.00326939579F,
                                       -0.00607989682F,
                                       -0.0075474456F,
                                       0.00355548924F,
                                       -0.000856655126F,
                                       -0.00213811104F,
                                       0.00658633187F,
                                       0.00251069968F,
                                       -0.006797913F,
                                       -0.00817815773F,
                                       -0.00523754116F,
                                       -0.00951925386F,
                                       -0.00769507885F,
                                       -0.00625718618F,
                                       -0.00191251258F,
                                       -0.0106082549F,
                                       -0.00274350122F,
                                       -0.002090113F,
                                       -0.00346589973F,
                                       -0.00680814032F,
                                       -0.00732243806F,
                                       -0.00617353525F,
                                       -0.00643173046F,
                                       -0.000934261887F,
                                       -0.00383072975F,
                                       0.00811345689F,
                                       -0.00757575035F,
                                       -0.00612868229F,
                                       -0.0066165356F,
                                       -0.00332401646F,
                                       0.00987824425F,
                                       -0.00684174802F,
                                       -0.00875317119F,
                                       0.0104370443F,
                                       -0.00329499436F,
                                       -0.00947183371F,
                                       0.00249207742F,
                                       -0.0011531919F,
                                       -0.00168724975F,
                                       -0.0013455638F,
                                       -0.00276170601F,
                                       -0.00605884846F,
                                       0.0112424856F,
                                       -0.00433911569F,
                                       -0.00631630654F,
                                       -0.000821984548F,
                                       -0.00658663F,
                                       -0.00682291342F,
                                       -0.0106270164F,
                                       -0.00603086455F,
                                       -0.0035730938F,
                                       -0.00229979213F,
                                       -0.00207417388F,
                                       -0.00851402804F,
                                       0.00657656696F,
                                       -0.00619356893F,
                                       -0.00640482781F,
                                       0.000105149084F,
                                       0.00783285F,
                                       -0.00145254307F,
                                       -0.00547745684F,
                                       0.00726064062F,
                                       -0.00818843301F,
                                       -0.00623400975F,
                                       -0.00641569588F,
                                       -0.00258898316F,
                                       -0.00744122174F,
                                       -0.000713663059F,
                                       -0.00820323173F,
                                       -0.00622946536F,
                                       -0.00614373432F,
                                       -0.00172922807F,
                                       0.00178170134F,
                                       -0.00771812303F,
                                       0.000210339873F,
                                       0.00658002868F,
                                       -0.00207113894F,
                                       -0.00819084141F,
                                       -0.00871728547F,
                                       -0.00294343196F,
                                       0.00532969786F,
                                       -0.0071526533F,
                                       0.0124052903F,
                                       -0.00585367437F,
                                       -0.00367312762F,
                                       -0.00495668F,
                                       -0.00738550583F,
                                       0.000164733166F,
                                       -0.00337173813F,
                                       -0.00566692976F,
                                       -0.00852464605F,
                                       -0.00459078187F,
                                       -0.00185549166F,
                                       -0.00208721356F,
                                       -0.00570339663F,
                                       0.00211181515F,
                                       0.0182361286F,
                                       -0.00836719107F,
                                       -0.000842375448F,
                                       0.00453972071F,
                                       -0.000640191662F,
                                       -0.00680029299F,
                                       -0.0069235526F,
                                       -0.000802714436F,
                                       -0.00216358923F,
                                       0.010412707F,
                                       -0.00944945F,
                                       -0.00144599099F,
                                       -0.00203145505F,
                                       -0.00875799172F,
                                       -0.00409977837F,
                                       0.0101257227F,
                                       -0.00839325693F,
                                       0.00360297854F,
                                       -0.00159438F,
                                       0.0116377221F,
                                       -0.00530538103F,
                                       -0.00413188199F,
                                       -0.00375955133F,
                                       -0.00362820481F,
                                       -0.00533999316F,
                                       -0.00196077512F,
                                       -0.00336902612F,
                                       -0.00153456593F,
                                       0.000783836935F,
                                       -0.0095693348F,
                                       -0.00505173765F,
                                       -0.00205315673F,
                                       -0.00731903967F,
                                       -0.00682110293F,
                                       -0.0071072164F,
                                       -0.00118947646F,
                                       -0.00551542407F,
                                       -0.00789732207F,
                                       -0.00868718699F,
                                       -0.00560033927F,
                                       -0.00844758563F,
                                       -0.00264331559F,
                                       -0.00585935963F,
                                       -0.00244437065F,
                                       0.00581506174F,
                                       0.000534880906F,
                                       -0.00823861826F,
                                       -0.00667954376F,
                                       -0.00700693065F,
                                       -0.0016689694F,
                                       -0.00539391953F,
                                       -0.00755478302F,
                                       -0.00105248345F,
                                       -0.00636658724F,
                                       8.09326666E-5F,
                                       -0.00207574503F,
                                       -0.00225678529F,
                                       -0.0074079535F,
                                       -0.0084507456F,
                                       -0.00691420212F,
                                       -0.00603590207F,
                                       -0.00666968757F,
                                       0.00435746135F,
                                       -0.00242871069F,
                                       -0.00828346144F,
                                       -0.00680664F,
                                       -0.00838604383F,
                                       0.000681148609F,
                                       0.00776513F,
                                       -0.00655604945F,
                                       -0.00485969242F,
                                       0.00810785219F,
                                       0.00594345341F,
                                       0.00914629828F,
                                       -0.006471687F,
                                       -0.00725543452F,
                                       -0.00890814327F,
                                       -0.000703492842F,
                                       -0.000304380112F,
                                       -0.00608505122F,
                                       0.00880145654F,
                                       -0.00525488285F,
                                       -0.00617735321F,
                                       0.00801057F,
                                       -0.0019645351F,
                                       0.004226916F,
                                       -0.00133300212F,
                                       -0.0029783831F,
                                       -0.00498703914F,
                                       -0.00835216604F,
                                       0.00611495273F,
                                       -0.00557357213F,
                                       -0.00255094888F,
                                       -0.00607069535F,
                                       -0.0059672487F,
                                       -0.00630584452F,
                                       0.00520949718F,
                                       -0.00561959064F,
                                       -0.0087074507F,
                                       0.00380778452F,
                                       -0.00714453356F,
                                       -0.00238219532F,
                                       -0.000383995182F,
                                       0.009427513F,
                                       -0.00139824953F,
                                       -0.00804658327F,
                                       -0.00510021485F,
                                       2.85055521E-5F,
                                       -0.00489135319F,
                                       -0.00163942238F,
                                       -0.00604882231F,
                                       -0.00262021273F,
                                       -0.00903610326F,
                                       -0.00185342622F,
                                       0.00211502658F,
                                       -0.000987393199F,
                                       -0.00650121784F,
                                       -0.0055606286F,
                                       -0.00599719258F,
                                       -0.00747629441F,
                                       -0.00837742351F,
                                       -0.00642872881F,
                                       -0.0065089697F,
                                       -0.00171890971F,
                                       -0.00161117117F,
                                       -0.00625568954F,
                                       0.0103029599F,
                                       -0.00807891414F,
                                       -0.0054876334F,
                                       -0.00620147772F,
                                       0.00592901F,
                                       0.000184502525F,
                                       -0.00131003838F,
                                       -0.00367285F,
                                       -0.00200043106F,
                                       0.000706608524F,
                                       -0.00156562612F,
                                       0.00516617484F,
                                       -5.03948977E-5F,
                                       -0.007837574F,
                                       0.00539643411F,
                                       -0.00591258099F,
                                       -0.00794442371F,
                                       -0.00638356758F,
                                       -0.0118722282F,
                                       0.0100042531F,
                                       0.00533687091F,
                                       -0.00453250576F,
                                       -0.00800324511F,
                                       -0.00821428653F,
                                       -0.00854139216F,
                                       -0.00708247861F,
                                       -0.0062204469F,
                                       -0.00620145F,
                                       -0.000457974675F,
                                       -0.00116582832F,
                                       0.00866130926F,
                                       -0.00180454901F,
                                       -0.00515402248F,
                                       -0.00218940247F,
                                       -0.00759161916F,
                                       0.00781015446F,
                                       -0.0036346619F,
                                       -0.0087077124F,
                                       -0.0061536883F,
                                       -0.00775095355F,
                                       -0.00150664628F,
                                       -0.00622871099F,
                                       -0.000490900304F,
                                       -0.00757155567F,
                                       -0.008612209F,
                                       -0.00586385373F,
                                       0.00120671606F,
                                       -0.00412620651F,
                                       -0.0060831313F,
                                       -0.00086845865F,
                                       -0.00654824357F,
                                       -0.00781332515F,
                                       0.000609922048F,
                                       -0.00704397215F,
                                       -0.00243689213F,
                                       -0.00218879129F,
                                       -0.011820701F,
                                       0.000279942469F,
                                       0.00183586264F,
                                       0.00426743F,
                                       -0.00640208041F,
                                       0.00926892087F,
                                       0.00910333078F,
                                       -0.00488318969F,
                                       -0.00762508F,
                                       -0.00100290426F,
                                       0.0153466696F,
                                       0.00209756545F,
                                       -0.00626968F,
                                       -0.00615463173F,
                                       -0.00810733344F,
                                       -0.00744518545F,
                                       -0.00278324517F,
                                       -0.00538680423F,
                                       -0.00668797037F,
                                       -0.00840307493F,
                                       -0.00797400437F,
                                       -0.00636548735F,
                                       -0.00152216677F,
                                       0.000207347854F,
                                       -0.00579876825F,
                                       0.00300402823F,
                                       -0.00488055777F,
                                       -0.007124322F,
                                       0.00449510431F,
                                       -0.00652763573F,
                                       -0.0019622047F,
                                       -0.00616582576F,
                                       -0.000849617529F,
                                       0.00122923125F,
                                       -0.00568027562F,
                                       -0.0071669966F,
                                       -0.00732890703F,
                                       0.0126077784F,
                                       -0.00897196773F,
                                       -0.00810972322F,
                                       -0.00518790307F,
                                       -0.00796635449F,
                                       -0.00675679464F,
                                       -0.00894784927F,
                                       0.00557921873F,
                                       -0.00776413456F,
                                       -0.00185465196F,
                                       0.00280730333F,
                                       0.00589465722F,
                                       -0.00758233573F,
                                       -0.00630220259F,
                                       -0.00351174921F,
                                       -0.00385219394F,
                                       -0.00499336934F,
                                       -0.00514530856F,
                                       -0.00602631923F,
                                       -0.00789123308F,
                                       -0.00256283907F,
                                       0.00380680477F,
                                       -0.00716498541F,
                                       -0.00349349342F,
                                       -0.0065751276F,
                                       -0.008354933F,
                                       -0.00644359225F,
                                       -0.00578700518F,
                                       -0.00591623643F,
                                       -0.00608660793F,
                                       -0.00156282878F};
  static const float stateBias[500] = {
      -0.00742539251F,  -0.00164591649F,  -0.000502231705F, -0.00604687957F,
      -0.00590573903F,  -0.00241489569F,  -0.00463835755F,  -0.00620915042F,
      -0.00584760029F,  0.00539668836F,   0.00167407957F,   -0.00618254906F,
      -0.00576279638F,  0.010070147F,     -0.00603922177F,  -0.0022979381F,
      -0.00548034115F,  -0.00816786F,     -0.00711401F,     -0.0069646691F,
      0.00481589884F,   0.0081160171F,    -0.00797281135F,  0.00215631234F,
      0.00101436244F,   0.00633424334F,   -0.00604979461F,  -0.00629963866F,
      -0.00627942197F,  -0.00857588276F,  -0.0100356461F,   -0.00679254718F,
      0.00400532922F,   0.0110189253F,    -0.00642700912F,  -0.00780430296F,
      0.00171536207F,   0.00100603956F,   -0.00608969F,     -0.000509550795F,
      0.000477105466F,  -0.00267421617F,  -0.006213699F,    0.00260572042F,
      0.00772476709F,   -0.00602344749F,  -0.0045346655F,   -0.0027537439F,
      -0.00164225255F,  0.00299336365F,   -0.000820837507F, 0.0105299093F,
      -0.00746880705F,  -0.00174766721F,  -0.00622587791F,  -0.00197217F,
      0.00826626085F,   0.000937274948F,  -0.0057452675F,   -0.0059561315F,
      -0.000463159842F, -0.00426229089F,  0.00115585118F,   0.00421085441F,
      -0.00227494328F,  -0.00792002399F,  -0.00688678212F,  -0.00607023574F,
      -0.00842458475F,  -0.00549865188F,  -0.00186816149F,  -0.000819729641F,
      -0.00675385119F,  -0.00604049535F,  -0.0072715804F,   -0.00860773772F,
      0.00209325692F,   -0.00606678519F,  -0.00574098481F,  -0.0168291572F,
      -0.00344543275F,  -0.00625646207F,  -0.00351298926F,  -0.00781160081F,
      -0.00809824653F,  -0.00036975625F,  -0.000814154278F, 0.00233152974F,
      0.00108246692F,   -0.0070309029F,   -0.000209468577F, 0.0103663523F,
      -0.00144625246F,  -0.00773379346F,  -0.00178882177F,  0.00484497845F,
      -0.00306531F,     -0.00807442144F,  -0.0106725013F,   -0.00520120095F,
      -0.00520488108F,  -0.000814210158F, -6.92116228E-5F,  -0.00839327835F,
      -0.00938989222F,  -0.00866864063F,  -0.00555582857F,  -0.00602960633F,
      0.0052086371F,    -0.000862843299F, 0.000513846288F,  -0.00856848F,
      0.0126271443F,    -0.00206003943F,  0.0123912571F,    -0.00621844362F,
      0.000877735F,     -0.00632232567F,  -0.00199684594F,  0.0104821306F,
      -0.00756534096F,  -0.00618704129F,  -0.000611859898F, -0.00768628391F,
      -0.00299615483F,  -0.00673130434F,  8.95686753E-5F,   0.00302603515F,
      -0.00739093125F,  0.0139003033F,    0.00464872131F,   -0.00699442253F,
      -0.00814028457F,  -0.00800706912F,  -0.00628939504F,  -0.00606321F,
      -0.00461607566F,  -0.00664864341F,  -0.0069283573F,   0.00975711551F,
      0.00352223823F,   -0.00748077128F,  0.0215551723F,    0.00563950185F,
      -0.00608212175F,  -0.00604011677F,  0.00457987841F,   -0.00182881125F,
      -0.00655225664F,  -0.00308682723F,  -0.00470743282F,  -0.00867083576F,
      -0.00256348448F,  0.00141019456F,   -0.0055361134F,   -0.00627964037F,
      -0.00625110185F,  0.00608824706F,   -0.00126892026F,  -0.00151010824F,
      0.00445334241F,   0.00301999738F,   -0.00675142556F,  -0.00803072657F,
      -0.00785195921F,  -0.00774174742F,  0.0111524118F,    -0.00537106115F,
      0.00217825104F,   -0.00115576072F,  0.0122194644F,    -0.00299517647F,
      -0.00128162478F,  -0.00625975756F,  -0.00926832F,     -0.00605613971F,
      -0.00544467801F,  0.00411348604F,   -0.00436713081F,  0.00329291448F,
      -0.00680940598F,  -0.00600325409F,  -0.00629656436F,  0.00983617455F,
      0.00889499392F,   -0.00617399113F,  -0.00846741069F,  0.00866725389F,
      -0.00399202574F,  -0.00906125F,     -0.00351423933F,  -0.00170835014F,
      -0.00582693052F,  0.00540263252F,   0.004846917F,     -0.0061394861F,
      0.00822357833F,   -0.00350312307F,  -0.00622198824F,  0.00107355812F,
      -0.00696134428F,  -0.0042772782F,   -0.0148470215F,   -0.0066154059F,
      -0.00111659954F,  -0.000483950949F, -0.00114042731F,  -0.00842769351F,
      -0.00256003765F,  -0.00649642665F,  -0.00648648711F,  0.00102009519F,
      0.00300913281F,   0.00142734742F,   -0.00831620861F,  0.00890180282F,
      -0.00598905515F,  -0.00632172031F,  -0.00610788539F,  -0.00149700872F,
      -0.00865229126F,  0.00381349283F,   -0.0078406781F,   -0.00777531369F,
      -0.00619099569F,  -0.00686571188F,  0.00882149301F,   -0.00673020538F,
      0.00203064247F,   0.009689264F,     -0.000826677307F, -0.00144372776F,
      -0.00945059583F,  -0.00149223697F,  0.0061669331F,    -0.00706450269F,
      -0.0010875368F,   -0.00617820164F,  -0.00307819596F,  -0.0055981013F,
      -0.006435527F,    0.00364370854F,   0.00975307729F,   -0.00580846332F,
      -0.00852461066F,  -0.0040015066F,   -0.00175868545F,  -0.00508070737F,
      -0.00565281836F,  -0.00595003692F,  0.015562606F,     -0.00614155922F,
      -0.000147955347F, 0.00648671156F,   -0.0044569F,      -0.00661361357F,
      -0.00947283488F,  0.00400806731F,   -0.00440453971F,  0.00682117417F,
      -0.00664695539F,  -0.00491242F,     0.00383848068F,   -0.00903512351F,
      -0.0039896057F,   0.00908002723F,   -0.0073270984F,   -0.00752867479F,
      -0.000619379629F, 0.0108952178F,    -0.00430912105F,  -0.00579887F,
      -0.00372296199F,  -0.00650071027F,  -0.0062342016F,   0.00557440287F,
      -0.00570969237F,  -0.00630589295F,  0.000969237764F,  -0.00644682441F,
      -0.0048285895F,   -0.00275442167F,  -0.00620468473F,  -0.00650180504F,
      -0.0078901872F,   -0.00241623283F,  0.00398906833F,   -0.00696803909F,
      -0.00706091151F,  -0.00516795274F,  0.00234214985F,   0.00451305695F,
      -0.0052542584F,   0.00271476596F,   0.00411795918F,   0.00164396467F,
      -0.00667450763F,  -0.00610027416F,  -0.00647864537F,  0.00325234816F,
      -0.00753604062F,  -0.00664687902F,  -0.00165263214F,  -0.00615816657F,
      -0.00796190836F,  -0.000950399612F, 0.00250155828F,   0.000360744511F,
      -0.00698695611F,  -0.00612576213F,  -0.00601445138F,  -0.0064085559F,
      0.00275040092F,   3.37953884E-6F,   -0.00605574157F,  -0.00662831822F,
      -0.00681383489F,  0.00388921355F,   0.0101890489F,    -0.00784156937F,
      -0.00262821512F,  0.00414174516F,   -4.65716175E-6F,  0.0014425111F,
      -0.00866987F,     -0.0066139116F,   -0.00646640314F,  0.000481774419F,
      0.00162007159F,   -0.00907452684F,  0.00315497234F,   -0.0052691577F,
      -0.00754759787F,  0.00977157429F,   0.00173273159F,   0.0020610136F,
      0.000655602431F,  0.00374408974F,   -0.00538111338F,  0.0072526834F,
      0.0063809175F,    -0.00955081917F,  -0.00299031567F,  -0.00273085153F,
      -0.0057325F,      -0.00603398308F,  0.0033353F,       -0.00785997137F,
      -0.007440669F,    -0.0011186325F,   -0.00752174202F,  0.00520078139F,
      -0.000374219671F, 0.00719548669F,   0.00669321837F,   -0.00855802838F,
      -0.00461310567F,  0.00313853566F,   -0.0057808673F,   0.00356569211F,
      0.00664665224F,   -0.00383088225F,  -0.00728015276F,  0.00189600431F,
      -0.00196708646F,  0.00436085695F,   -0.00675839605F,  -0.00591974752F,
      -0.00624778168F,  -0.00829623081F,  -0.0083512F,      -0.00607031444F,
      -0.000402201927F, -0.00100568926F,  -0.00517287385F,  -0.00656368816F,
      0.0120935505F,    -0.00666270917F,  -0.000198809197F, -0.00602299348F,
      0.00206259685F,   -0.00707543083F,  -0.00193856971F,  -0.000646470813F,
      0.00361666665F,   0.00339173875F,   -0.00323092844F,  -0.00159589492F,
      -0.00184987509F,  -0.00706655672F,  0.00692343386F,   0.00497745397F,
      -0.00644692592F,  -0.00630349154F,  -0.0105086165F,   0.0105438335F,
      -0.00225027231F,  0.00629962888F,   -0.00165530748F,  0.00241834344F,
      -0.00760491146F,  -0.00820573512F,  -0.00861639623F,  0.00355705735F,
      0.000513507344F,  0.00644529518F,   0.00668710424F,   -0.00393845048F,
      -0.00574958744F,  -0.000124244369F, -0.00669228192F,  0.00891131721F,
      -0.00125045748F,  -0.010377164F,    -0.00614821352F,  -0.00653049769F,
      0.00206166203F,   -0.00535897817F,  -0.0016122621F,   -0.00951231737F,
      -0.00684667705F,  -0.00713610416F,  0.000525480369F,  -0.00382371666F,
      -0.00603163755F,  -0.00642058346F,  -0.00606869394F,  -0.00669884309F,
      -0.00132412848F,  -0.00467911735F,  0.00128634088F,   0.00143274083F,
      -0.0096315F,      -0.0087938346F,   0.00966448896F,   0.0121226525F,
      -0.00635607634F,  0.00476100482F,   0.0105763562F,    -0.00253434735F,
      -0.00702325255F,  -0.00313246623F,  0.0091393115F,    -0.0031436584F,
      -0.0065035969F,   -0.00682534557F,  -0.0060999F,      -0.00600725785F,
      -0.00838958286F,  -0.00481804227F,  -0.00413201237F,  0.00491919275F,
      -0.0065919389F,   -0.0063063032F,   0.0035349F,       0.00226462726F,
      -0.00596471317F,  -0.00016042724F,  -0.00560305221F,  -0.00527763041F,
      0.00358645618F,   0.0038170137F,    -0.00310441479F,  -0.0060137324F,
      -0.00339247985F,  0.00634573726F,   -0.00572231272F,  -0.00683151325F,
      -0.00625947351F,  0.00648232782F,   0.00160702295F,   -0.00692307157F,
      -0.00556603F,     -0.00634155842F,  -0.00894920062F,  -0.00652297307F,
      0.00601124531F,   -0.00770612527F,  0.00197586534F,   0.0128684593F,
      0.00331669045F,   -0.00805711746F,  -0.00838918239F,  -0.00469668489F,
      -0.00462382846F,  -0.00490030786F,  -0.00528106885F,  -0.0060236929F,
      -0.0075748181F,   0.00427478645F,   0.0106528783F,    -0.00717211422F,
      0.00203424064F,   -0.00659295032F,  -0.00705640763F,  -0.00644314429F,
      -0.00583716109F,  -0.00587346125F,  -0.00696949661F,  -4.88174919E-5F};
  static float inputGateWeights[21063000];
  static float inputStateWeights[7021000];
  static float recurrentGateWeights[750000];
  static float recurrentStateWeights[250000];
  static bool bufferInitialized;
  float Z[1500];
  float gateValues[1500];
  float b_Z[500];
  int i;
  if (!bufferInitialized) {
    readDnnConstants(&recurrentGateWeights[0],
                     "/home/bipoe/integration_challenge/prediction/dnn/largeDnnConstants_2398262.bin",
                     750000);
    readDnnConstants(&inputGateWeights[0],
                     "/home/bipoe/integration_challenge/prediction/dnn/largeDnnConstants_2398260.bin",
                     21063000);
    readDnnConstants(&recurrentStateWeights[0],
                     "/home/bipoe/integration_challenge/prediction/dnn/largeDnnConstants_2398263.bin",
                     250000);
    readDnnConstants(&inputStateWeights[0],
                     "/home/bipoe/integration_challenge/prediction/dnn/largeDnnConstants_2398261.bin",
                     7021000);
  }
  bufferInitialized = true;
  matrixMultiply1(1500, 500, 1, 64, 64, 64, &recurrentGateWeights[0],
                  &hiddenState[0], &Z[0]);
  for (i = 0; i < 1500; i++) {
    Z[i] += gateBias[i];
  }
  matrixMultiply1(1500, 14042, 1, 64, 64, 64, &inputGateWeights[0], &X_data[0],
                  &gateValues[0]);
  for (i = 0; i < 1500; i++) {
    gateValues[i] += Z[i];
  }
  lambdaForColumnMajorGeneric(gateValues);
  matrixMultiply1(500, 500, 1, 64, 64, 64, &recurrentStateWeights[0],
                  &hiddenState[0], &b_Z[0]);
  for (i = 0; i < 500; i++) {
    b_Z[i] += stateBias[i];
  }
  matrixMultiply1(500, 14042, 1, 64, 64, 64, &inputStateWeights[0], &X_data[0],
                  &Y[0]);
  for (i = 0; i < 500; i++) {
    Y[i] += b_Z[i];
  }
  c_lambdaForColumnMajorGeneric(Y);
  for (i = 0; i < 500; i++) {
    Y[i] = Y[i] * gateValues[i] + gateValues[i + 500] * cellState[i];
  }
  e_lambdaForColumnMajorGeneric(Y);
  for (i = 0; i < 500; i++) {
    Y[i] *= gateValues[i + 1000];
  }
}

/*
 * File trailer for LSTMLayer.c
 *
 * [EOF]
 */
