/*
 * Academic License - for use in teaching, academic research, and meeting
 * course requirements at degree granting institutions only.  Not for
 * government, commercial, or other organizational use.
 * File: predictForRNN.c
 *
 * MATLAB Coder version            : 24.2
 * C/C++ source code generated on  : 15-Nov-2024 02:25:16
 */

/* Include Files */
#include "predictForRNN.h"
#include "LSTMLayer.h"
#include "NeuralNgin_emxutil.h"
#include "NeuralNgin_internal_types.h"
#include "NeuralNgin_rtwutil.h"
#include "NeuralNgin_types.h"
#include "SoftmaxLayer.h"
#include "elementwiseOperationInPlace.h"
#include "../fft/rt_nonfinite.h"
#include <string.h>

/* Function Definitions */
/*
 * Arguments    : c_coder_internal_ctarget_DeepLe *obj
 *                const cell_wrap_31 *inputs
 *                float outputData[3]
 * Return Type  : void
 */
void c_DeepLearningNetwork_predictFo(c_coder_internal_ctarget_DeepLe *obj,
                                     const cell_wrap_31 *inputs,
                                     float outputData[3])
{
  static const float gateBias[1500] = {-0.00155692361F,
                                       0.00591862714F,
                                       -0.0016616364F,
                                       0.0131727289F,
                                       -0.0127038155F,
                                       -0.00121742336F,
                                       0.00901045371F,
                                       0.0150468657F,
                                       0.00764858117F,
                                       -0.00425322726F,
                                       0.0149897F,
                                       0.00335577F,
                                       -0.000788288366F,
                                       0.0108654229F,
                                       0.0128740277F,
                                       0.0224419013F,
                                       0.034857925F,
                                       -0.00349860569F,
                                       0.0296235215F,
                                       0.0221388284F,
                                       0.0150873596F,
                                       0.0314105488F,
                                       0.0160469227F,
                                       0.00223254459F,
                                       -0.00180825067F,
                                       0.00595200621F,
                                       0.00589035172F,
                                       0.0153140379F,
                                       -0.00968269631F,
                                       0.0219616052F,
                                       0.0240611359F,
                                       0.0104165757F,
                                       0.0125227859F,
                                       0.00524409674F,
                                       -0.00637918944F,
                                       -0.00322102476F,
                                       -0.00501462072F,
                                       0.00674156472F,
                                       -0.00558472F,
                                       -0.00730273454F,
                                       0.00762033509F,
                                       0.00174661877F,
                                       0.0352004841F,
                                       0.000438088871F,
                                       0.0080301F,
                                       0.00587580586F,
                                       0.0103702713F,
                                       -0.00424879091F,
                                       0.0288590938F,
                                       0.0276589394F,
                                       -0.00226460327F,
                                       0.0166851319F,
                                       0.0204548854F,
                                       -0.00974600948F,
                                       -0.00169569044F,
                                       0.00120823563F,
                                       0.00145288673F,
                                       0.00125139707F,
                                       0.00334174745F,
                                       -0.000967791828F,
                                       -0.000555979088F,
                                       -0.000445893675F,
                                       0.00840333384F,
                                       0.00139496522F,
                                       -0.00302522141F,
                                       0.00200046808F,
                                       -0.000328679831F,
                                       -0.00380874099F,
                                       0.000805096235F,
                                       -0.00350783905F,
                                       0.0156039819F,
                                       0.0109171504F,
                                       0.00884821825F,
                                       0.0283723455F,
                                       -0.00382531341F,
                                       0.0245948602F,
                                       -0.00311159831F,
                                       -0.0112995598F,
                                       0.0204801615F,
                                       -0.00157125294F,
                                       -0.0094454363F,
                                       0.0160687603F,
                                       -0.003713388F,
                                       0.000907677168F,
                                       0.0168696884F,
                                       0.00676169107F,
                                       -0.00566147827F,
                                       0.00599496113F,
                                       0.00027372592F,
                                       -0.00877513457F,
                                       0.0059594824F,
                                       0.0113778245F,
                                       0.0177228246F,
                                       0.0207577609F,
                                       0.00835096464F,
                                       -0.011104078F,
                                       -0.00437087798F,
                                       0.0116849011F,
                                       0.0286900736F,
                                       -0.00284339325F,
                                       0.00308492919F,
                                       -0.000999268F,
                                       -0.000315705489F,
                                       -0.00247938838F,
                                       0.0104309395F,
                                       -0.00281333481F,
                                       0.0117949611F,
                                       0.00414034817F,
                                       0.00330046308F,
                                       -0.00324586174F,
                                       -0.00600953959F,
                                       -0.00248324545F,
                                       -0.000675769348F,
                                       0.000564536487F,
                                       -0.00151692855F,
                                       0.00669169F,
                                       -0.00135370565F,
                                       0.03294947F,
                                       0.0037594724F,
                                       0.00542694051F,
                                       0.0029135691F,
                                       -0.00395676866F,
                                       0.00900438149F,
                                       -0.0010496116F,
                                       0.0104363281F,
                                       0.0164225F,
                                       0.00973734073F,
                                       0.0259750392F,
                                       0.0376945585F,
                                       -0.000401490717F,
                                       -0.00680996943F,
                                       0.0405099392F,
                                       0.0204253253F,
                                       0.0135497991F,
                                       0.00504986523F,
                                       -0.00275854324F,
                                       0.00339240744F,
                                       -0.00479004113F,
                                       0.0228475388F,
                                       0.00528089469F,
                                       0.00514217233F,
                                       0.0142218228F,
                                       0.0104014948F,
                                       0.00351249124F,
                                       0.00569475442F,
                                       -0.00667561637F,
                                       -0.0019206627F,
                                       -0.00303658447F,
                                       0.0124117183F,
                                       0.00822360255F,
                                       0.0138617083F,
                                       0.00183972646F,
                                       -0.000530628953F,
                                       0.0369435214F,
                                       -0.00852488726F,
                                       0.0174655858F,
                                       0.00950105116F,
                                       0.00520810345F,
                                       -0.00351837138F,
                                       -0.00925895479F,
                                       -0.00896584895F,
                                       0.00151679688F,
                                       0.0110534364F,
                                       0.0124837682F,
                                       -0.00292538106F,
                                       0.0142065445F,
                                       0.0109604448F,
                                       0.0176357217F,
                                       -0.00117791211F,
                                       0.0231582299F,
                                       0.00370535F,
                                       0.0080850441F,
                                       -0.0131437248F,
                                       0.000229609F,
                                       -0.00454849424F,
                                       -0.00121932419F,
                                       0.00723360572F,
                                       0.00955030508F,
                                       0.00354999164F,
                                       -0.00376066961F,
                                       0.0106123053F,
                                       0.00105585658F,
                                       0.0112859588F,
                                       0.0197144244F,
                                       -0.00608225353F,
                                       -0.00923004F,
                                       0.00522819953F,
                                       0.0270847082F,
                                       0.00217978726F,
                                       0.0126313791F,
                                       0.00714116869F,
                                       0.0273620225F,
                                       0.0242382772F,
                                       0.00748118339F,
                                       0.00113417266F,
                                       0.031653598F,
                                       -0.00307568745F,
                                       0.00352860754F,
                                       0.00610480504F,
                                       0.0273184236F,
                                       0.001402708F,
                                       0.0153358532F,
                                       0.004313502F,
                                       0.00311177876F,
                                       -0.00148096774F,
                                       0.00701908534F,
                                       -0.0040274756F,
                                       -0.00175763411F,
                                       0.0227443166F,
                                       0.0206628069F,
                                       -0.00317201158F,
                                       -0.00284984661F,
                                       -0.0078336345F,
                                       0.00250588311F,
                                       -0.00737803848F,
                                       0.00231267232F,
                                       -0.00348138716F,
                                       -0.000695719849F,
                                       0.000759772F,
                                       -0.00680690957F,
                                       -0.0043809046F,
                                       0.00836294517F,
                                       0.00531601068F,
                                       0.0225041956F,
                                       0.0230961107F,
                                       0.0137026487F,
                                       0.0187424067F,
                                       0.00124594849F,
                                       -0.000343547406F,
                                       0.00366519531F,
                                       -0.000154224399F,
                                       0.00945527945F,
                                       -0.00698321545F,
                                       0.0199343096F,
                                       -0.00687515363F,
                                       -0.00966946501F,
                                       0.00812118128F,
                                       -0.0017511308F,
                                       0.01673593F,
                                       -0.00587280793F,
                                       0.00405906793F,
                                       0.000830260047F,
                                       0.0274029151F,
                                       0.0234865677F,
                                       0.0217796527F,
                                       0.00240693567F,
                                       0.0227004793F,
                                       0.00349990628F,
                                       0.0103298919F,
                                       -0.00581141282F,
                                       0.0013501083F,
                                       0.000678076F,
                                       0.00575655466F,
                                       0.0150889577F,
                                       -0.00794775598F,
                                       0.00162315613F,
                                       0.00582323829F,
                                       0.024001712F,
                                       0.0168693922F,
                                       0.0267564971F,
                                       -0.0026312524F,
                                       0.0195429102F,
                                       0.0118800476F,
                                       -0.00200727978F,
                                       0.0289551243F,
                                       0.0174601283F,
                                       0.00577161042F,
                                       0.0155696329F,
                                       0.000905690657F,
                                       0.0277317986F,
                                       -0.000837836298F,
                                       0.0144091463F,
                                       0.0027261572F,
                                       0.0301825851F,
                                       0.00651567802F,
                                       -0.00666312454F,
                                       -0.0085401535F,
                                       0.00204391521F,
                                       0.0136924228F,
                                       0.00987307634F,
                                       -0.000150413936F,
                                       0.0107050138F,
                                       -0.00646518F,
                                       0.0105825579F,
                                       0.00613483926F,
                                       -0.00238166377F,
                                       0.00740461191F,
                                       0.00751110725F,
                                       0.000589469913F,
                                       0.0395167135F,
                                       -0.0028487402F,
                                       -0.0011280732F,
                                       -0.0138031049F,
                                       0.00353609025F,
                                       0.00709633948F,
                                       0.00176450412F,
                                       0.0133211091F,
                                       0.00185621751F,
                                       0.0125843827F,
                                       -0.00177118368F,
                                       0.000151106389F,
                                       0.0159748886F,
                                       0.024102468F,
                                       0.000951651426F,
                                       0.0319855027F,
                                       0.0142832622F,
                                       -0.00640924F,
                                       0.0199630242F,
                                       -0.0105255516F,
                                       -0.0152616054F,
                                       -0.00407687388F,
                                       -0.00380161847F,
                                       -0.00160555798F,
                                       0.00787683763F,
                                       0.0092336107F,
                                       -0.0062780818F,
                                       -0.0024171907F,
                                       -0.0075620045F,
                                       0.00444951188F,
                                       0.00936500542F,
                                       0.00380375562F,
                                       0.0310115218F,
                                       -0.00793577638F,
                                       0.0182321183F,
                                       -0.00307265762F,
                                       0.0162759926F,
                                       -0.0106572881F,
                                       -0.00272901147F,
                                       -0.00340185058F,
                                       0.00707193697F,
                                       0.00245164032F,
                                       -0.00507084839F,
                                       0.00429291744F,
                                       -0.00359870936F,
                                       -0.00540979486F,
                                       -0.00958581921F,
                                       0.0147370044F,
                                       -0.00911973882F,
                                       0.0200069081F,
                                       0.010868514F,
                                       0.006051403F,
                                       0.000998656615F,
                                       0.00911913719F,
                                       0.0155080287F,
                                       0.0288189296F,
                                       -0.00614310335F,
                                       0.0257011615F,
                                       0.0109790107F,
                                       0.0225469489F,
                                       -0.00116373517F,
                                       0.0132400813F,
                                       0.0211598575F,
                                       0.0237777196F,
                                       -0.00395326503F,
                                       -0.0103828823F,
                                       -0.0052733412F,
                                       -0.00551577052F,
                                       0.00603192486F,
                                       0.00759351207F,
                                       0.0224963129F,
                                       0.00714957761F,
                                       -0.011753656F,
                                       0.00136331073F,
                                       -0.00412126863F,
                                       0.0325439237F,
                                       0.00540496409F,
                                       0.019271642F,
                                       0.00339532318F,
                                       0.0242056232F,
                                       0.00337742525F,
                                       0.00604701F,
                                       0.00384915178F,
                                       0.00851091929F,
                                       0.0359140411F,
                                       -0.0115806544F,
                                       -0.000100692239F,
                                       -0.00486498233F,
                                       0.00589733291F,
                                       0.00807676464F,
                                       0.00201854506F,
                                       0.0159995053F,
                                       0.00475093396F,
                                       0.0201208517F,
                                       -0.00466747209F,
                                       0.00919059664F,
                                       0.011531814F,
                                       0.0331838951F,
                                       0.000724661921F,
                                       0.0251369067F,
                                       0.000833874103F,
                                       -0.00220966688F,
                                       6.49158465E-5F,
                                       0.0132497568F,
                                       -0.00028998559F,
                                       -0.00228802837F,
                                       -0.00845371F,
                                       0.0112174507F,
                                       0.0321131274F,
                                       0.0264052972F,
                                       0.0163780879F,
                                       0.00994907599F,
                                       0.00305978535F,
                                       -0.00820295885F,
                                       0.0152945826F,
                                       0.0058465153F,
                                       0.00941056F,
                                       0.0108535467F,
                                       0.0256596953F,
                                       0.0419892743F,
                                       -0.00199768622F,
                                       0.0183023661F,
                                       -0.0119633246F,
                                       0.0206632894F,
                                       0.00598697504F,
                                       0.011415422F,
                                       0.021217715F,
                                       0.0217044596F,
                                       0.0118562793F,
                                       -0.00289476314F,
                                       -0.00257263961F,
                                       0.0138725881F,
                                       0.0197565183F,
                                       -0.00440475577F,
                                       0.00644455198F,
                                       0.0247882903F,
                                       0.00215732795F,
                                       -0.00153280236F,
                                       0.0141869923F,
                                       0.00985991396F,
                                       0.00641939556F,
                                       0.00639474F,
                                       0.0108960122F,
                                       0.0125550395F,
                                       -0.00504869083F,
                                       0.0119084837F,
                                       0.00379329012F,
                                       0.00502519077F,
                                       0.0147768995F,
                                       0.0127907768F,
                                       0.0252357684F,
                                       -0.00648021279F,
                                       -0.00197397778F,
                                       -0.00333838072F,
                                       -0.011359374F,
                                       -0.00718455436F,
                                       0.00325101381F,
                                       -0.00552054727F,
                                       0.0239308644F,
                                       0.0172642097F,
                                       -0.00107100105F,
                                       0.00633528316F,
                                       0.00323674269F,
                                       -0.000496246736F,
                                       0.00379152945F,
                                       -0.00644907076F,
                                       -0.0042575188F,
                                       0.0102327084F,
                                       -0.0042397487F,
                                       -0.00309896283F,
                                       -0.00696357759F,
                                       -0.00380976545F,
                                       0.00743710902F,
                                       0.0154382698F,
                                       0.00722857378F,
                                       0.0220323633F,
                                       0.0120356521F,
                                       -0.00593901146F,
                                       0.0127307037F,
                                       0.00406453665F,
                                       0.0312331375F,
                                       0.042818822F,
                                       -0.00489230081F,
                                       -0.00428345287F,
                                       0.0129833277F,
                                       0.0129328482F,
                                       0.0305093341F,
                                       -0.00963592157F,
                                       0.00617516786F,
                                       -0.00310039078F,
                                       0.0358754918F,
                                       0.0299753249F,
                                       0.017457908F,
                                       0.00144030864F,
                                       0.0129596563F,
                                       0.00982865319F,
                                       0.00614613621F,
                                       0.0148158846F,
                                       0.00191928039F,
                                       -0.00692622038F,
                                       0.0314968079F,
                                       0.0133912703F,
                                       1.53204819E-5F,
                                       -0.00280658156F,
                                       -0.00868454389F,
                                       0.0121009545F,
                                       -0.00914677419F,
                                       -0.00380081241F,
                                       -0.00749658886F,
                                       -0.00288289948F,
                                       -0.00363551942F,
                                       1.0F,
                                       1.0F,
                                       1.0F,
                                       1.0F,
                                       1.0F,
                                       1.0F,
                                       1.0F,
                                       1.0F,
                                       1.0F,
                                       1.0F,
                                       1.0F,
                                       1.0F,
                                       1.0F,
                                       1.0F,
                                       1.0F,
                                       1.0F,
                                       1.0F,
                                       1.0F,
                                       1.0F,
                                       1.0F,
                                       1.0F,
                                       1.0F,
                                       1.0F,
                                       1.0F,
                                       1.0F,
                                       1.0F,
                                       1.0F,
                                       1.0F,
                                       1.0F,
                                       1.0F,
                                       1.0F,
                                       1.0F,
                                       1.0F,
                                       1.0F,
                                       1.0F,
                                       1.0F,
                                       1.0F,
                                       1.0F,
                                       1.0F,
                                       1.0F,
                                       1.0F,
                                       1.0F,
                                       1.0F,
                                       1.0F,
                                       1.0F,
                                       1.0F,
                                       1.0F,
                                       1.0F,
                                       1.0F,
                                       1.0F,
                                       1.0F,
                                       1.0F,
                                       1.0F,
                                       1.0F,
                                       1.0F,
                                       1.0F,
                                       1.0F,
                                       1.0F,
                                       1.0F,
                                       1.0F,
                                       1.0F,
                                       1.0F,
                                       1.0F,
                                       1.0F,
                                       1.0F,
                                       1.0F,
                                       1.0F,
                                       1.0F,
                                       1.0F,
                                       1.0F,
                                       1.0F,
                                       1.0F,
                                       1.0F,
                                       1.0F,
                                       1.0F,
                                       1.0F,
                                       1.0F,
                                       1.0F,
                                       1.0F,
                                       1.0F,
                                       1.0F,
                                       1.0F,
                                       1.0F,
                                       1.0F,
                                       1.0F,
                                       1.0F,
                                       1.0F,
                                       1.0F,
                                       1.0F,
                                       1.0F,
                                       1.0F,
                                       1.0F,
                                       1.0F,
                                       1.0F,
                                       1.0F,
                                       1.0F,
                                       1.0F,
                                       1.0F,
                                       1.0F,
                                       1.0F,
                                       1.0F,
                                       1.0F,
                                       1.0F,
                                       1.0F,
                                       1.0F,
                                       1.0F,
                                       1.0F,
                                       1.0F,
                                       1.0F,
                                       1.0F,
                                       1.0F,
                                       1.0F,
                                       1.0F,
                                       1.0F,
                                       1.0F,
                                       1.0F,
                                       1.0F,
                                       1.0F,
                                       1.0F,
                                       1.0F,
                                       1.0F,
                                       1.0F,
                                       1.0F,
                                       1.0F,
                                       1.0F,
                                       1.0F,
                                       1.0F,
                                       1.0F,
                                       1.0F,
                                       1.0F,
                                       1.0F,
                                       1.0F,
                                       1.0F,
                                       1.0F,
                                       1.0F,
                                       1.0F,
                                       1.0F,
                                       1.0F,
                                       1.0F,
                                       1.0F,
                                       1.0F,
                                       1.0F,
                                       1.0F,
                                       1.0F,
                                       1.0F,
                                       1.0F,
                                       1.0F,
                                       1.0F,
                                       1.0F,
                                       1.0F,
                                       1.0F,
                                       1.0F,
                                       1.0F,
                                       1.0F,
                                       1.0F,
                                       1.0F,
                                       1.0F,
                                       1.0F,
                                       1.0F,
                                       1.0F,
                                       1.0F,
                                       1.0F,
                                       1.0F,
                                       1.0F,
                                       1.0F,
                                       1.0F,
                                       1.0F,
                                       1.0F,
                                       1.0F,
                                       1.0F,
                                       1.0F,
                                       1.0F,
                                       1.0F,
                                       1.0F,
                                       1.0F,
                                       1.0F,
                                       1.0F,
                                       1.0F,
                                       1.0F,
                                       1.0F,
                                       1.0F,
                                       1.0F,
                                       1.0F,
                                       1.0F,
                                       1.0F,
                                       1.0F,
                                       1.0F,
                                       1.0F,
                                       1.0F,
                                       1.0F,
                                       1.0F,
                                       1.0F,
                                       1.0F,
                                       1.0F,
                                       1.0F,
                                       1.0F,
                                       1.0F,
                                       1.0F,
                                       1.0F,
                                       1.0F,
                                       1.0F,
                                       1.0F,
                                       1.0F,
                                       1.0F,
                                       1.0F,
                                       1.0F,
                                       1.0F,
                                       1.0F,
                                       1.0F,
                                       1.0F,
                                       1.0F,
                                       1.0F,
                                       1.0F,
                                       1.0F,
                                       1.0F,
                                       1.0F,
                                       1.0F,
                                       1.0F,
                                       1.0F,
                                       1.0F,
                                       1.0F,
                                       1.0F,
                                       1.0F,
                                       1.0F,
                                       1.0F,
                                       1.0F,
                                       1.0F,
                                       1.0F,
                                       1.0F,
                                       1.0F,
                                       1.0F,
                                       1.0F,
                                       1.0F,
                                       1.0F,
                                       1.0F,
                                       1.0F,
                                       1.0F,
                                       1.0F,
                                       1.0F,
                                       1.0F,
                                       1.0F,
                                       1.0F,
                                       1.0F,
                                       1.0F,
                                       1.0F,
                                       1.0F,
                                       1.0F,
                                       1.0F,
                                       1.0F,
                                       1.0F,
                                       1.0F,
                                       1.0F,
                                       1.0F,
                                       1.0F,
                                       1.0F,
                                       1.0F,
                                       1.0F,
                                       1.0F,
                                       1.0F,
                                       1.0F,
                                       1.0F,
                                       1.0F,
                                       1.0F,
                                       1.0F,
                                       1.0F,
                                       1.0F,
                                       1.0F,
                                       1.0F,
                                       1.0F,
                                       1.0F,
                                       1.0F,
                                       1.0F,
                                       1.0F,
                                       1.0F,
                                       1.0F,
                                       1.0F,
                                       1.0F,
                                       1.0F,
                                       1.0F,
                                       1.0F,
                                       1.0F,
                                       1.0F,
                                       1.0F,
                                       1.0F,
                                       1.0F,
                                       1.0F,
                                       1.0F,
                                       1.0F,
                                       1.0F,
                                       1.0F,
                                       1.0F,
                                       1.0F,
                                       1.0F,
                                       1.0F,
                                       1.0F,
                                       1.0F,
                                       1.0F,
                                       1.0F,
                                       1.0F,
                                       1.0F,
                                       1.0F,
                                       1.0F,
                                       1.0F,
                                       1.0F,
                                       1.0F,
                                       1.0F,
                                       1.0F,
                                       1.0F,
                                       1.0F,
                                       1.0F,
                                       1.0F,
                                       1.0F,
                                       1.0F,
                                       1.0F,
                                       1.0F,
                                       1.0F,
                                       1.0F,
                                       1.0F,
                                       1.0F,
                                       1.0F,
                                       1.0F,
                                       1.0F,
                                       1.0F,
                                       1.0F,
                                       1.0F,
                                       1.0F,
                                       1.0F,
                                       1.0F,
                                       1.0F,
                                       1.0F,
                                       1.0F,
                                       1.0F,
                                       1.0F,
                                       1.0F,
                                       1.0F,
                                       1.0F,
                                       1.0F,
                                       1.0F,
                                       1.0F,
                                       1.0F,
                                       1.0F,
                                       1.0F,
                                       1.0F,
                                       1.0F,
                                       1.0F,
                                       1.0F,
                                       1.0F,
                                       1.0F,
                                       1.0F,
                                       1.0F,
                                       1.0F,
                                       1.0F,
                                       1.0F,
                                       1.0F,
                                       1.0F,
                                       1.0F,
                                       1.0F,
                                       1.0F,
                                       1.0F,
                                       1.0F,
                                       1.0F,
                                       1.0F,
                                       1.0F,
                                       1.0F,
                                       1.0F,
                                       1.0F,
                                       1.0F,
                                       1.0F,
                                       1.0F,
                                       1.0F,
                                       1.0F,
                                       1.0F,
                                       1.0F,
                                       1.0F,
                                       1.0F,
                                       1.0F,
                                       1.0F,
                                       1.0F,
                                       1.0F,
                                       1.0F,
                                       1.0F,
                                       1.0F,
                                       1.0F,
                                       1.0F,
                                       1.0F,
                                       1.0F,
                                       1.0F,
                                       1.0F,
                                       1.0F,
                                       1.0F,
                                       1.0F,
                                       1.0F,
                                       1.0F,
                                       1.0F,
                                       1.0F,
                                       1.0F,
                                       1.0F,
                                       1.0F,
                                       1.0F,
                                       1.0F,
                                       1.0F,
                                       1.0F,
                                       1.0F,
                                       1.0F,
                                       1.0F,
                                       1.0F,
                                       1.0F,
                                       1.0F,
                                       1.0F,
                                       1.0F,
                                       1.0F,
                                       1.0F,
                                       1.0F,
                                       1.0F,
                                       1.0F,
                                       1.0F,
                                       1.0F,
                                       1.0F,
                                       1.0F,
                                       1.0F,
                                       1.0F,
                                       1.0F,
                                       1.0F,
                                       1.0F,
                                       1.0F,
                                       1.0F,
                                       1.0F,
                                       1.0F,
                                       1.0F,
                                       1.0F,
                                       1.0F,
                                       1.0F,
                                       1.0F,
                                       1.0F,
                                       1.0F,
                                       1.0F,
                                       1.0F,
                                       1.0F,
                                       1.0F,
                                       1.0F,
                                       1.0F,
                                       1.0F,
                                       1.0F,
                                       1.0F,
                                       1.0F,
                                       1.0F,
                                       1.0F,
                                       1.0F,
                                       1.0F,
                                       1.0F,
                                       1.0F,
                                       1.0F,
                                       1.0F,
                                       1.0F,
                                       1.0F,
                                       1.0F,
                                       1.0F,
                                       1.0F,
                                       1.0F,
                                       1.0F,
                                       1.0F,
                                       1.0F,
                                       1.0F,
                                       1.0F,
                                       1.0F,
                                       1.0F,
                                       1.0F,
                                       1.0F,
                                       1.0F,
                                       1.0F,
                                       1.0F,
                                       1.0F,
                                       1.0F,
                                       1.0F,
                                       1.0F,
                                       1.0F,
                                       1.0F,
                                       1.0F,
                                       1.0F,
                                       1.0F,
                                       1.0F,
                                       1.0F,
                                       1.0F,
                                       1.0F,
                                       1.0F,
                                       1.0F,
                                       1.0F,
                                       1.0F,
                                       1.0F,
                                       1.0F,
                                       1.0F,
                                       1.0F,
                                       1.0F,
                                       1.0F,
                                       1.0F,
                                       1.0F,
                                       1.0F,
                                       1.0F,
                                       1.0F,
                                       1.0F,
                                       -0.00275029731F,
                                       0.00640826626F,
                                       -0.00101009733F,
                                       0.0107383952F,
                                       -0.0129541699F,
                                       -0.00262300787F,
                                       0.00804235321F,
                                       0.0175003354F,
                                       0.00668668048F,
                                       -0.00398694165F,
                                       0.0174557716F,
                                       0.00376800355F,
                                       -0.00081330596F,
                                       0.0107912505F,
                                       0.0151630221F,
                                       0.0227902811F,
                                       0.0356411897F,
                                       -0.00332215521F,
                                       0.0249340609F,
                                       0.0236951672F,
                                       0.0146039035F,
                                       0.0331936143F,
                                       0.0170233324F,
                                       0.00128830154F,
                                       -0.000503270188F,
                                       0.0064499476F,
                                       0.00616322272F,
                                       0.0144264512F,
                                       -0.00923407078F,
                                       0.0225263685F,
                                       0.0222191084F,
                                       0.0102500021F,
                                       0.011682055F,
                                       0.00442934688F,
                                       -0.00646964321F,
                                       -0.00381651521F,
                                       -0.00466224551F,
                                       0.00690155942F,
                                       -0.00646013254F,
                                       -0.00700238F,
                                       0.00566585315F,
                                       0.00190348388F,
                                       0.03655288F,
                                       -0.000484862423F,
                                       0.00927588809F,
                                       0.0063173878F,
                                       0.00954755396F,
                                       -0.00429021055F,
                                       0.0295963809F,
                                       0.0284152851F,
                                       -0.00248962338F,
                                       0.0197861716F,
                                       0.0209363755F,
                                       -0.00976214092F,
                                       -0.000665291736F,
                                       0.000789091748F,
                                       0.00217393623F,
                                       0.000965097046F,
                                       0.00448056404F,
                                       -0.00303048594F,
                                       -0.000628385809F,
                                       -0.000668419176F,
                                       0.00446935045F,
                                       0.000681899721F,
                                       -0.00307610491F,
                                       0.00305200345F,
                                       -0.000780735398F,
                                       -0.00329451F,
                                       -0.000346863089F,
                                       -0.00208220212F,
                                       0.0174374692F,
                                       0.00974785723F,
                                       0.00874325912F,
                                       0.0303006F,
                                       -0.00406872155F,
                                       0.0257161241F,
                                       -0.00509460596F,
                                       -0.0110149905F,
                                       0.0206000227F,
                                       -0.00174252898F,
                                       -0.00942370761F,
                                       0.0161043219F,
                                       -0.00385578535F,
                                       -0.000277311919F,
                                       0.0154574057F,
                                       0.0061027375F,
                                       -0.0047164578F,
                                       0.00398306735F,
                                       -0.00155172579F,
                                       -0.0101902792F,
                                       0.00524528651F,
                                       0.011492908F,
                                       0.0182176754F,
                                       0.0192620568F,
                                       0.0072061317F,
                                       -0.0108880196F,
                                       -0.00520790182F,
                                       0.0115133133F,
                                       0.0299284F,
                                       -0.0030595616F,
                                       0.00265524234F,
                                       -0.00158724061F,
                                       -0.00108852272F,
                                       -0.00251402706F,
                                       0.010384989F,
                                       -0.00266042957F,
                                       0.0105155855F,
                                       0.00339697977F,
                                       0.00285291905F,
                                       -0.00330066332F,
                                       -0.0055404F,
                                       -0.00321852462F,
                                       -0.00171406334F,
                                       0.00119699177F,
                                       -0.00145599293F,
                                       0.00593121629F,
                                       -0.00113504683F,
                                       0.0341270491F,
                                       0.0017262731F,
                                       0.00442226324F,
                                       0.00247647753F,
                                       -0.00283903256F,
                                       0.00784025062F,
                                       -0.00202895678F,
                                       0.010937985F,
                                       0.018313352F,
                                       0.011857341F,
                                       0.0265945F,
                                       0.0381165557F,
                                       -0.000140544274F,
                                       -0.00679968437F,
                                       0.0413687117F,
                                       0.0220869128F,
                                       0.015848998F,
                                       0.00661594281F,
                                       -0.00325965695F,
                                       0.0012758699F,
                                       -0.00493086F,
                                       0.023067534F,
                                       0.00525257224F,
                                       0.00349230925F,
                                       0.0117767472F,
                                       0.0133115482F,
                                       0.00297471043F,
                                       0.00286259362F,
                                       -0.0069199116F,
                                       -0.00200043526F,
                                       -0.00198700884F,
                                       0.0116737476F,
                                       0.00839171186F,
                                       0.0117713539F,
                                       0.00118964515F,
                                       0.00032854508F,
                                       0.0380270928F,
                                       -0.00697872601F,
                                       0.0178795159F,
                                       0.0107055614F,
                                       0.0046324674F,
                                       -0.00406847335F,
                                       -0.0094348276F,
                                       -0.00877294783F,
                                       0.0029198057F,
                                       0.0115310745F,
                                       0.0137828104F,
                                       -0.00229822448F,
                                       0.0157751683F,
                                       0.0146017671F,
                                       0.0174925625F,
                                       -0.0033889818F,
                                       0.02248035F,
                                       0.00421100575F,
                                       0.00679164566F,
                                       -0.0132251689F,
                                       0.000617536192F,
                                       -0.00514012342F,
                                       0.000707876636F,
                                       0.00398790929F,
                                       0.0105068171F,
                                       -0.000852033612F,
                                       -0.00455091847F,
                                       0.0101549691F,
                                       -0.00028737192F,
                                       0.00959291589F,
                                       0.0205298F,
                                       -0.00646144757F,
                                       -0.00881810766F,
                                       0.00685556279F,
                                       0.0287083145F,
                                       0.00254611741F,
                                       0.0101788146F,
                                       0.00808185339F,
                                       0.0286033675F,
                                       0.0254461113F,
                                       0.00939570088F,
                                       0.000568416668F,
                                       0.0332233049F,
                                       -0.00235127588F,
                                       0.00446248427F,
                                       0.00876419153F,
                                       0.0276503135F,
                                       0.000959830824F,
                                       0.0163212884F,
                                       0.00366520952F,
                                       0.00323368888F,
                                       -0.00212723878F,
                                       0.00718570966F,
                                       -0.00341688888F,
                                       -0.0020971084F,
                                       0.0218062606F,
                                       0.0188604034F,
                                       -0.00290547218F,
                                       -0.00258047669F,
                                       -0.00813351292F,
                                       0.00263150339F,
                                       -0.00718559138F,
                                       0.00214720657F,
                                       -0.0029983588F,
                                       -0.000542374095F,
                                       -0.000487967947F,
                                       -0.00709606661F,
                                       -0.00405749818F,
                                       0.00808008388F,
                                       0.00456794584F,
                                       0.0251084063F,
                                       0.0247242637F,
                                       0.0144673884F,
                                       0.0185053963F,
                                       0.00100902189F,
                                       0.000803436269F,
                                       0.00411633588F,
                                       0.000434281566F,
                                       0.0107720811F,
                                       -0.00687671453F,
                                       0.0212893952F,
                                       -0.00660854764F,
                                       -0.00943022408F,
                                       0.00755005609F,
                                       -0.00274259248F,
                                       0.0149144772F,
                                       -0.00586378109F,
                                       0.0023560829F,
                                       0.00113601121F,
                                       0.0277049709F,
                                       0.0248584934F,
                                       0.0234107841F,
                                       0.00300387316F,
                                       0.0236798935F,
                                       0.00475839665F,
                                       0.0115520386F,
                                       -0.00603371719F,
                                       0.00186001475F,
                                       0.00171128032F,
                                       0.00701422105F,
                                       0.0181766264F,
                                       -0.0080548618F,
                                       -0.000118775133F,
                                       0.00577370124F,
                                       0.025473468F,
                                       0.0195778683F,
                                       0.0282807965F,
                                       -0.00167367607F,
                                       0.0219505038F,
                                       0.0103983069F,
                                       -0.00248307F,
                                       0.0287565347F,
                                       0.0175662935F,
                                       0.00506921532F,
                                       0.0134432595F,
                                       -0.000348563F,
                                       0.0283680763F,
                                       -0.00114259787F,
                                       0.0141955391F,
                                       0.00595703581F,
                                       0.0319699422F,
                                       0.00603409857F,
                                       -0.00699371705F,
                                       -0.0093842335F,
                                       0.00235726917F,
                                       0.0156370159F,
                                       0.00576832471F,
                                       -0.00139278464F,
                                       0.00993545074F,
                                       -0.00665168371F,
                                       0.010738967F,
                                       0.00202632719F,
                                       -0.00309743918F,
                                       0.00567179546F,
                                       0.00603772048F,
                                       0.000528357457F,
                                       0.0415562764F,
                                       -0.00223720889F,
                                       -0.0012007741F,
                                       -0.013993646F,
                                       0.00239053485F,
                                       0.00597104803F,
                                       0.00253784237F,
                                       0.0123372208F,
                                       0.00229297369F,
                                       0.0123306345F,
                                       -0.00322878454F,
                                       0.000184018121F,
                                       0.0156967044F,
                                       0.025684502F,
                                       0.000883284374F,
                                       0.0332595669F,
                                       0.0129019571F,
                                       -0.00569819147F,
                                       0.0214724764F,
                                       -0.010455993F,
                                       -0.0137065286F,
                                       -0.00447953539F,
                                       -0.00400218507F,
                                       -0.00144459144F,
                                       0.00962250773F,
                                       0.00732799433F,
                                       -0.0061094868F,
                                       -0.00263129082F,
                                       -0.00717215845F,
                                       0.00564769795F,
                                       0.00829493254F,
                                       0.0027980688F,
                                       0.0320193842F,
                                       -0.00850876328F,
                                       0.0168026444F,
                                       -0.00333286216F,
                                       0.0187303815F,
                                       -0.0100615211F,
                                       3.17234371E-5F,
                                       -0.00337874074F,
                                       0.00719243521F,
                                       0.00236486061F,
                                       -0.0050247265F,
                                       0.00538540492F,
                                       -0.00242130319F,
                                       -0.00547625776F,
                                       -0.00961570628F,
                                       0.0157429855F,
                                       -0.00887168106F,
                                       0.0224820301F,
                                       0.0132534988F,
                                       0.00687666191F,
                                       0.000386874279F,
                                       0.00811241F,
                                       0.0155245047F,
                                       0.0284796041F,
                                       -0.00578249758F,
                                       0.022462558F,
                                       0.0114672203F,
                                       0.0229285192F,
                                       -0.0016915669F,
                                       0.0167922266F,
                                       0.0201531984F,
                                       0.0229258053F,
                                       -0.00436002249F,
                                       -0.0106344307F,
                                       -0.00527550466F,
                                       -0.00573548162F,
                                       0.00706598768F,
                                       0.00615429785F,
                                       0.023330396F,
                                       0.00419855257F,
                                       -0.0117608393F,
                                       0.00024883775F,
                                       -0.00436341576F,
                                       0.0323051251F,
                                       0.0038166123F,
                                       0.019897392F,
                                       0.00370306592F,
                                       0.0260306653F,
                                       0.00241654133F,
                                       0.00611580163F,
                                       0.00354006956F,
                                       0.00618357025F,
                                       0.0351041779F,
                                       -0.0128920842F,
                                       -0.000699317665F,
                                       -0.00464869523F,
                                       0.00645536976F,
                                       0.00804491621F,
                                       0.00200070534F,
                                       0.0148135507F,
                                       0.00585908908F,
                                       0.0188024621F,
                                       -0.00447468041F,
                                       0.00847261772F,
                                       0.0110474108F,
                                       0.0350361839F,
                                       -0.000268050237F,
                                       0.025471257F,
                                       0.000165007572F,
                                       -0.00204575225F,
                                       0.000219753361F,
                                       0.0160540473F,
                                       -0.000930540613F,
                                       -0.00279552909F,
                                       -0.00845314097F,
                                       0.00910311844F,
                                       0.0318297558F,
                                       0.027405642F,
                                       0.0173872486F,
                                       0.0107271411F,
                                       0.00188388734F,
                                       -0.00802094396F,
                                       0.0171524473F,
                                       0.00545242289F,
                                       0.00891028065F,
                                       0.0135831889F,
                                       0.0273501147F,
                                       0.042912472F,
                                       -0.00165911F,
                                       0.0160528384F,
                                       -0.0119149592F,
                                       0.0219648462F,
                                       0.00611741655F,
                                       0.0130619137F,
                                       0.0198709406F,
                                       0.0231440607F,
                                       0.0123663442F,
                                       -0.00265577179F,
                                       -0.00197125855F,
                                       0.0123310694F,
                                       0.0199483279F,
                                       -0.00454665115F,
                                       0.0074756369F,
                                       0.0256313402F,
                                       0.00157059589F,
                                       -0.00246597198F,
                                       0.0152193708F,
                                       0.0119140344F,
                                       0.00536505505F,
                                       0.00765657891F,
                                       0.0118435575F,
                                       0.012952718F,
                                       -0.00502078794F,
                                       0.0138553046F,
                                       0.00237226812F,
                                       0.00519694388F,
                                       0.0156094339F,
                                       0.013365306F,
                                       0.0261716861F,
                                       -0.00622608373F,
                                       -0.00274013774F,
                                       -0.00410626316F,
                                       -0.0118819065F,
                                       -0.00803407F,
                                       0.00451947376F,
                                       -0.00439633289F,
                                       0.0236816425F,
                                       0.01906077F,
                                       -0.0012990504F,
                                       0.00738244504F,
                                       0.00364763057F,
                                       -0.000795200816F,
                                       0.00237835641F,
                                       -0.00507625332F,
                                       -0.00418943353F,
                                       0.0112116104F,
                                       -0.00480907504F,
                                       -0.00305896462F,
                                       -0.0067952578F,
                                       -0.00423445925F,
                                       0.0082929926F,
                                       0.0159371495F,
                                       0.00465484662F,
                                       0.0215131827F,
                                       0.00810945127F,
                                       -0.00601247652F,
                                       0.0127351116F,
                                       0.0035519728F,
                                       0.0311077293F,
                                       0.0451847799F,
                                       -0.00467907358F,
                                       -0.00310506695F,
                                       0.0134958643F,
                                       0.015930824F,
                                       0.0314852186F,
                                       -0.00902389921F,
                                       0.00814512465F,
                                       -0.00327050593F,
                                       0.0351348706F,
                                       0.0312792622F,
                                       0.0161826145F,
                                       0.00296458532F,
                                       0.0144603383F,
                                       0.0110639203F,
                                       0.00402869703F,
                                       0.0142396698F,
                                       0.00251194695F,
                                       -0.00676662941F,
                                       0.0319177918F,
                                       0.0125615392F,
                                       0.000499431277F,
                                       -0.00231427699F,
                                       -0.00840108935F,
                                       0.0111423619F,
                                       -0.00864666421F,
                                       -0.00432258798F,
                                       -0.00636239164F,
                                       -0.00261406624F,
                                       -0.00390320551F};
  static const float t0_Weights[1500] = {
      0.0753798336F,   0.0211782735F,    -0.0400101393F,   -0.0827712F,
      0.0656788647F,   0.0843675F,       0.090820536F,     0.0380436443F,
      0.005276029F,    0.00154674228F,   0.0646742582F,    -0.0183240511F,
      0.0717274398F,   0.0162489843F,    -0.0679650605F,   0.0866407156F,
      0.0720297247F,   0.0178893283F,    0.0332226716F,    -0.109601147F,
      -0.0191371571F,  -0.0257551186F,   0.0543087423F,    -0.0308757611F,
      0.0940853357F,   -0.0611152574F,   0.0118148215F,    0.0820703059F,
      0.016250385F,    0.00877761468F,   -0.00232336903F,  -0.000953556213F,
      -0.0627975687F,  0.0187259819F,    -0.0903121755F,   0.00812909566F,
      0.0551543944F,   -0.053403981F,    0.0849372F,       -0.0330684371F,
      -0.0752910227F,  0.0697379112F,    -0.0549364127F,   -0.111560591F,
      0.122308552F,    -0.0965946913F,   -0.0568146966F,   -0.114155054F,
      -0.0669673607F,  -0.0887716189F,   0.139410794F,     0.0973392949F,
      -0.0948638171F,  0.0673321F,       -0.0395772271F,   -0.0563906804F,
      -0.118004486F,   -0.0984270424F,   -0.0902648345F,   -0.00511317514F,
      -0.0570545383F,  0.0657737553F,    0.126135021F,     0.087872386F,
      0.101097375F,    -0.0147275226F,   -0.0498039126F,   0.0230542179F,
      -0.0550540462F,  -0.107471816F,    -0.0620766804F,   -0.00486719562F,
      -0.0588686354F,  0.103355631F,     0.0582233481F,    -0.0696809441F,
      0.0948484242F,   0.0938743F,       0.0990797877F,    0.0258567836F,
      0.0716910288F,   0.115009665F,     -0.0957405865F,   0.0966937F,
      -0.0326045454F,  0.0780276284F,    0.0199566819F,    -0.0620880239F,
      -0.11667192F,    0.139337197F,     -0.0874658078F,   -0.0699469373F,
      0.130791739F,    -0.109662212F,    -0.0406333804F,   0.0783595666F,
      0.0458984226F,   -0.0688579381F,   0.117427677F,     0.0854470432F,
      -0.0976366326F,  -0.0495577231F,   0.00450578844F,   0.00857948791F,
      0.0628933236F,   -0.0986847878F,   -0.0861617F,      -0.0486100949F,
      0.0746880919F,   -0.0351951458F,   -0.0854244679F,   -0.0204952415F,
      0.0315805487F,   -0.0910840631F,   0.0545585901F,    0.0216004793F,
      -0.00317857228F, 0.0576086193F,    -0.0115793981F,   -0.0512067489F,
      -0.00689862203F, -0.0728867501F,   -0.0714118108F,   -0.0622804463F,
      0.108579494F,    -0.0528157465F,   0.00163258985F,   0.0925227404F,
      0.0460509062F,   0.0594214462F,    -0.0523724556F,   0.0546009466F,
      -0.00636149896F, -0.0801913962F,   0.0704848617F,    0.0124132959F,
      0.107942179F,    -0.0983918458F,   -0.0438979492F,   0.0964236185F,
      0.0461337529F,   0.0634710342F,    -0.0848142132F,   -0.0290669389F,
      -0.0610664673F,  -0.126684576F,    0.0523968413F,    -0.0515290312F,
      -0.0585298799F,  0.0898343772F,    0.000618163089F,  0.0735174268F,
      0.0826955363F,   -0.0668379888F,   0.102629155F,     -0.0977572575F,
      0.0755208731F,   0.0970332325F,    -0.0437126681F,   0.0389616862F,
      -0.00795864593F, 0.0125537179F,    -0.00565300696F,  0.0246129595F,
      -0.0522230864F,  0.075633131F,     -0.059807F,       0.0196853299F,
      -0.0679699257F,  0.0593147092F,    -0.0606081486F,   -0.0735022947F,
      0.0200003311F,   -0.0495969877F,   -0.0952219814F,   -0.0352801271F,
      -0.110724948F,   -0.0861733407F,   0.0436287299F,    0.0965323299F,
      -0.0806077719F,  0.0907635689F,    -0.0607662871F,   -0.0257249232F,
      0.0997788F,      0.0921495482F,    -0.059968181F,    0.00668349F,
      0.0538723543F,   0.0778963119F,    0.0435180105F,    -0.0429155044F,
      -0.0952348262F,  0.104746938F,     0.0160065852F,    -0.0686951205F,
      0.0590665564F,   -0.0894592777F,   0.0854468197F,    0.00371516333F,
      -0.0651032403F,  -0.0243419781F,   0.0675958171F,    0.0707671419F,
      -0.082864441F,   0.0754885748F,    0.0334569849F,    0.0102844704F,
      0.034605436F,    0.00159979519F,   -0.0293264017F,   -0.0313983858F,
      0.0233811047F,   0.0742882937F,    -0.0339462459F,   0.071454443F,
      -0.0458733402F,  0.0579137355F,    -0.128859177F,    0.0234847944F,
      -0.067643337F,   0.0636949465F,    -0.0671950281F,   0.0565705672F,
      0.0380175821F,   0.087499328F,     0.0995957851F,    -0.067847833F,
      -0.0434388556F,  -0.0851755068F,   -0.0779765919F,   -0.0674522445F,
      0.0158314761F,   0.0076306304F,    0.118003674F,     -0.105365656F,
      0.0928088427F,   0.0414540172F,    0.00410908787F,   0.0320693441F,
      -0.0502157845F,  0.0253303684F,    0.00493385782F,   0.0770374611F,
      0.0596283227F,   -0.0544235967F,   -0.0660801F,      0.0129819745F,
      0.0898674279F,   0.00308410753F,   -0.0796043F,      -0.0238796361F,
      -0.0607369915F,  0.0868698582F,    -0.0917992443F,   0.104639731F,
      0.00783881545F,  0.0777736306F,    -0.0518168546F,   -0.0260328352F,
      0.0136250202F,   0.070285894F,     -0.0905769542F,   0.0304329097F,
      0.0568271875F,   -0.00746143F,     -0.0896028429F,   0.00235241349F,
      -0.0433937423F,  -0.0321596898F,   -0.0330627151F,   0.043007955F,
      0.0484620556F,   0.00507483F,      -0.113616541F,    0.109858252F,
      0.0381615348F,   0.0301261395F,    -0.134905562F,    -0.00184061145F,
      -0.0886792168F,  0.0239615627F,    0.108044572F,     -0.0555549823F,
      0.0603327118F,   0.0422800295F,    0.0147328703F,    0.0136144273F,
      -0.0062247F,     0.0478137806F,    0.0487861745F,    -0.0600203052F,
      0.0181301422F,   0.120118558F,     -0.0745069087F,   -0.118213251F,
      0.101007141F,    -0.0415648557F,   0.0811748356F,    0.0994945467F,
      0.0828252F,      -0.0893041864F,   -0.0366300344F,   0.028262645F,
      -0.0474407822F,  -0.00280957785F,  -0.0646057F,      0.0762159377F,
      -0.0868646875F,  -0.0143613005F,   0.0583154932F,    0.0170649532F,
      -0.0419284888F,  -0.0841506422F,   0.0454299711F,    -0.0305362139F,
      -0.00302747125F, 0.00121249596F,   -0.00260308874F,  0.0586248152F,
      -0.0306106117F,  -0.0612163618F,   -0.0405161045F,   0.0635664091F,
      0.0883567706F,   0.0396132544F,    0.0828021318F,    0.027797142F,
      -0.0495446846F,  -0.062027961F,    0.0957399756F,    -0.0880839F,
      0.0215175431F,   0.0320328288F,    0.0153106619F,    -0.102528788F,
      -0.0964751914F,  0.0582235716F,    0.0646082F,       -0.104493625F,
      0.0485041402F,   -0.064035885F,    0.0427838452F,    -0.0811717883F,
      -0.0113194939F,  -0.0940815732F,   -0.0134786488F,   0.0572733879F,
      0.0537344664F,   0.096718736F,     -2.75302E-5F,     -0.0118410261F,
      -0.0174295176F,  0.113220431F,     0.0433062874F,    -0.0540084057F,
      -0.0532792583F,  -0.0929895118F,   0.0318476558F,    -0.048079215F,
      0.0996842235F,   -0.00548840687F,  -0.0414699912F,   0.0454609245F,
      -0.0984834805F,  0.0620672293F,    0.0873247907F,    -0.0357965752F,
      0.0400077589F,   -0.100829221F,    -0.0147196492F,   -0.0542735718F,
      -0.114517033F,   0.10505192F,      0.0283033438F,    -0.116807312F,
      -0.0245543886F,  0.0366929881F,    0.0366917141F,    -0.000577367842F,
      0.00140712631F,  -0.0712278783F,   -0.0409837551F,   0.0802953094F,
      -0.0633320808F,  -0.0726724565F,   0.108926594F,     -0.10274528F,
      0.00347548234F,  -0.0743261948F,   0.0150143672F,    0.0598036796F,
      0.0586247109F,   0.0615580864F,    0.0679590553F,    0.130645514F,
      0.0591308139F,   0.0747522712F,    -0.0952317566F,   0.0747678429F,
      0.0220546201F,   -0.123065062F,    -0.028541049F,    0.0942457691F,
      -0.0988520384F,  -0.0886521712F,   -0.0489718094F,   0.0331412368F,
      -0.0501036383F,  0.0316589847F,    -0.0683624819F,   0.000357653043F,
      0.0510920472F,   -0.000626635854F, 0.0173127986F,    0.0313394F,
      -0.0855946913F,  0.0199394058F,    -0.0249874797F,   0.0530401021F,
      0.0919292346F,   -0.0669607446F,   -0.0564600639F,   0.095263131F,
      -0.0681837052F,  0.0535182655F,    -0.0918778256F,   0.104581989F,
      -0.0719200745F,  -0.0107427761F,   -0.102180161F,    -0.0995386913F,
      0.0837177485F,   0.00931246F,      0.00497640297F,   0.0210776348F,
      0.0493617728F,   0.0388197F,       0.00553308427F,   -0.0512208939F,
      0.0423250087F,   0.0761157945F,    0.0516786762F,    0.0107693262F,
      0.0526770689F,   -0.0658302456F,   0.0240727495F,    0.0562428124F,
      -0.0973632932F,  0.0526542477F,    -0.0330806188F,   -0.0978323519F,
      -0.137650445F,   0.0890457481F,    -0.0680872425F,   0.0540153831F,
      0.0809873044F,   0.0102086561F,    0.0837110057F,    -0.0721485689F,
      -0.0767479539F,  0.130991936F,     -0.0156532358F,   -0.0167433638F,
      -0.0367969908F,  0.0336758718F,    0.0551934466F,    0.11508894F,
      0.10630928F,     0.0329917297F,    -0.106431276F,    0.102814987F,
      0.0157986581F,   -0.0873283893F,   0.0920221731F,    -0.057905376F,
      0.0643186197F,   -0.0523233302F,   0.0131065566F,    -0.0297992211F,
      0.0328787714F,   -0.000514702522F, 0.040717233F,     0.0659432F,
      0.0230798647F,   0.100791894F,     -0.0609541945F,   -0.0347475633F,
      0.085689269F,    -0.0265261568F,   0.00204488332F,   -0.138188526F,
      -0.104139313F,   0.0234684721F,    -0.00769998087F,  0.0710129589F,
      -0.111550711F,   0.0368796922F,    0.0803554133F,    0.0481373966F,
      -0.0758730397F,  0.0339341089F,    0.00467106374F,   -0.0663227513F,
      -0.0590842031F,  0.0506685525F,    0.063978225F,     0.064965643F,
      0.0794722214F,   -0.0500035733F,   0.0591865182F,    0.0271474179F,
      0.0205955617F,   0.102898493F,     0.00021047084F,   0.0467887297F,
      0.00883545261F,  -0.0641866624F,   -0.0696562F,      -0.0650602F,
      -0.109418482F,   -0.0969101563F,   0.0669548884F,    -0.0353026912F,
      0.0510853417F,   0.0101573328F,    -0.0680245385F,   -0.0957419723F,
      0.0454368666F,   -0.11152342F,     -0.0968700498F,   -0.108121917F,
      -0.0441730395F,  -0.129833862F,    0.0690325797F,    -0.0494979732F,
      -0.0787373185F,  0.0873704329F,    -0.0784214064F,   -0.00570844859F,
      -0.026981011F,   0.0873676F,       0.0187097F,       -0.0158436298F,
      -0.0224622879F,  -0.0401880182F,   -0.0204542801F,   -0.115561686F,
      -0.0209719334F,  -0.00402305787F,  -0.00646541268F,  0.0579423197F,
      0.0848889872F,   0.0189513098F,    -0.033057861F,    -0.0760351419F,
      -0.0967802256F,  -0.0882405639F,   -0.00948120095F,  -0.0896299779F,
      0.0491081849F,   0.101202935F,     0.112293504F,     0.0212454833F,
      0.0706666484F,   -0.0937359184F,   -0.0309189018F,   0.115855686F,
      0.0638555661F,   -0.0899577513F,   -0.071144022F,    0.112180904F,
      0.0600242F,      0.0954984054F,    0.101059549F,     -0.00468996074F,
      -0.0335705802F,  -0.121544033F,    0.0501609445F,    -0.0183300767F,
      -0.106265798F,   0.091071628F,     -0.0763945356F,   0.0341669805F,
      -0.00277140341F, -0.0270482302F,   -0.0366700329F,   0.137002245F,
      0.0625682697F,   -0.017124135F,    0.0769606F,       0.0645600781F,
      -0.0288891084F,  -0.0160360467F,   0.116095439F,     -0.00241452269F,
      0.0170889869F,   -0.0865534768F,   -0.0260806363F,   -0.0839348733F,
      -0.024957316F,   0.0244217161F,    -0.0478258505F,   0.0825786814F,
      0.0828270391F,   -0.0530433878F,   -0.0952472612F,   -0.0399774499F,
      -0.0789108947F,  0.0686263219F,    -0.0437527485F,   -0.112935267F,
      0.0500312857F,   -0.042464368F,    -0.0687082037F,   0.0167608447F,
      0.0822466835F,   0.0538821F,       0.105195686F,     -0.00942072645F,
      0.0293124542F,   -0.0315854624F,   0.0844511166F,    0.0576743819F,
      -0.0453665555F,  -0.0236012116F,   0.117066309F,     -0.105080567F,
      -0.0579687F,     0.113204882F,     0.0629333258F,    -0.069767192F,
      -0.058955051F,   -0.0786098689F,   0.0132042216F,    0.0961014628F,
      0.0494506769F,   0.0338371061F,    0.0540306196F,    0.0265572928F,
      -0.0290519223F,  0.0604629181F,    0.0347752422F,    -0.0974146426F,
      -0.0037828139F,  -0.105281435F,    0.0108574275F,    0.0263395458F,
      -0.0758680701F,  -0.00179586897F,  0.0599988252F,    0.0935409516F,
      0.0140544316F,   -0.100986965F,    -0.026167728F,    0.039225921F,
      0.0333010741F,   0.0165486485F,    -0.0297454242F,   0.021037139F,
      -0.00588442292F, 0.0777846128F,    0.0549810268F,    0.0867752656F,
      -0.0193072073F,  0.0186818819F,    -0.0996386F,      -0.0125270216F,
      -0.0585154146F,  -0.0543518811F,   -0.0900684744F,   0.142132774F,
      0.0431397F,      0.100802571F,     -0.0281104241F,   0.0775031149F,
      0.108387895F,    0.130026653F,     0.0562988296F,    0.0204340667F,
      0.120053113F,    0.093740046F,     0.0914398432F,    -0.0886211768F,
      0.00817499F,     0.0840271711F,    0.0133524574F,    -0.0683025867F,
      0.0580741763F,   -0.0884266198F,   0.0338029787F,    -0.0227854121F,
      0.0557878539F,   -0.0238450021F,   -0.119790055F,    -0.0714512691F,
      0.0987233669F,   -0.0314898826F,   -0.0981582F,      0.0208813082F,
      0.0197730493F,   0.0988809F,       -0.0818558782F,   -0.000812764F,
      0.0128480252F,   0.0723205879F,    0.017319696F,     -0.0408331566F,
      -0.0427657403F,  0.0925457478F,    -0.102870278F,    -0.0996020064F,
      -0.0237380471F,  0.0509081595F,    -0.00402235566F,  -0.12396051F,
      -0.00513109844F, 0.0154973054F,    -0.0550805517F,   -0.0145100225F,
      0.0278449096F,   -0.113443606F,    -0.05784427F,     -0.100232616F,
      -0.0089406278F,  -0.0689303428F,   0.0585287698F,    0.0587164164F,
      -0.067716F,      -0.00143246318F,  0.059118554F,     -0.05690955F,
      -0.0146851977F,  0.0725907385F,    -0.0268414449F,   -0.0867421925F,
      0.0720592439F,   -0.0624259636F,   0.00183501258F,   0.0556560233F,
      -0.0316231549F,  -0.0510070026F,   0.0683113635F,    -0.0967453346F,
      -0.0467905626F,  -0.0978920087F,   0.0899210796F,    0.0771108568F,
      0.0390925705F,   -0.0620439909F,   -0.0641427711F,   0.00523960358F,
      -0.0662627146F,  -0.0179257039F,   0.0899874717F,    -0.0695341229F,
      -0.0698216334F,  0.0878291652F,    -0.10446208F,     0.0515467227F,
      -0.0405272506F,  0.0272241365F,    -0.0110519733F,   0.0144232735F,
      -0.00390897691F, 0.0116653005F,    0.107629567F,     0.10691829F,
      0.0549754649F,   -0.0932362452F,   0.0387636609F,    -0.0806099251F,
      -0.0880570784F,  0.0393879376F,    -0.0568550155F,   -0.103515595F,
      0.101826951F,    0.0844945833F,    0.11538513F,      -0.00319674728F,
      0.0573713072F,   -0.0455985256F,   -0.000146026417F, -0.00842696894F,
      -0.0874469876F,  0.07732182F,      0.0769591F,       0.0630987659F,
      -0.112993501F,   0.0886428058F,    -0.0605757F,      -0.00430855248F,
      -0.00915298238F, -0.0916434526F,   -0.0337451138F,   0.00875199307F,
      0.00263308408F,  -0.110778987F,    -0.10903243F,     0.00334642362F,
      0.0748877078F,   0.0418640636F,    0.0307784975F,    -0.134372875F,
      -0.0272752028F,  0.10415002F,      -0.0821169838F,   -0.09441863F,
      -0.129012361F,   0.143060029F,     -0.103576489F,    -0.0367988981F,
      0.0890378356F,   0.0366323516F,    -0.00752124051F,  0.0913789272F,
      -0.00350600295F, 0.0546321F,       -0.0789348409F,   0.0846457F,
      0.0951455459F,   -0.0875676945F,   0.0220421515F,    -0.0373361073F,
      0.0542199388F,   0.00209186785F,   -0.0685769096F,   0.00865368173F,
      0.077956818F,    0.0297403112F,    0.0966125801F,    -0.0374185257F,
      0.0257893987F,   -0.0550817214F,   -0.0130212083F,   -0.109809816F,
      -0.0549655668F,  0.0771533623F,    0.0359479301F,    -0.0310942195F,
      -0.0769607F,     0.060702987F,     0.0422256924F,    -0.0314834751F,
      0.00542246737F,  -0.0349193588F,   0.00453292951F,   -0.0214995276F,
      -0.0288322698F,  0.0207960084F,    0.0349258259F,    -0.0609932765F,
      0.0969005823F,   0.0606285632F,    -0.0567291714F,   0.0556716509F,
      0.021378994F,    -0.0818212926F,   -0.0037580193F,   -0.0220163874F,
      -0.0839260072F,  0.0198869351F,    -0.0663956627F,   -0.123360246F,
      -0.0433526449F,  0.100815713F,     0.101797752F,     0.0586687066F,
      0.0661484674F,   -0.149456128F,    0.0251012072F,    0.0563302897F,
      0.0704540461F,   0.0440558419F,    0.0774770752F,    0.0503278337F,
      0.00574952038F,  0.0710062608F,    0.00320628705F,   -0.047494024F,
      -0.0199028123F,  -0.0446277484F,   -0.114370629F,    0.00217103632F,
      0.0389714725F,   0.0171623F,       -0.0127728172F,   -0.0141977612F,
      -0.0926128849F,  0.104557253F,     -0.0615166724F,   0.0464031175F,
      -0.09375754F,    -0.0127861351F,   -0.0399062149F,   -0.0175098646F,
      -0.103063792F,   0.0515988395F,    -0.0344656669F,   -0.0987645239F,
      0.0805318803F,   -0.0453471504F,   0.0366140269F,    0.0508469753F,
      0.065001F,       -0.0202805176F,   0.0641418F,       0.0718937144F,
      -0.00110021979F, -0.0607803538F,   -0.042988237F,    -0.0902868509F,
      -0.0602526069F,  -0.106797472F,    0.141452223F,     -0.0742223263F,
      0.0318756253F,   0.105579428F,     0.0521317087F,    0.0277074594F,
      0.0796483457F,   -0.0610798F,      -0.0699629039F,   0.0446386449F,
      0.0159822498F,   -0.0352339372F,   -0.0147415465F,   -0.0768219531F,
      0.0222677384F,   -0.0181125421F,   -0.0652153566F,   0.062827386F,
      0.0654449463F,   0.0616439283F,    -0.0886755437F,   -0.0467277169F,
      0.0564976744F,   -0.0472932234F,   -0.0827343762F,   0.0579745211F,
      -0.0893546417F,  0.0254612118F,    -0.056521859F,    -0.0836648196F,
      0.0439531431F,   -0.0521700755F,   0.0410638638F,    -0.0692589059F,
      0.0567037F,      -0.00678742025F,  -0.029534243F,    -0.0629208609F,
      -0.0391528271F,  0.0226928592F,    -0.105986789F,    0.0979397744F,
      -0.0577916056F,  0.0132615436F,    -0.061935652F,    0.100006387F,
      -0.0701181516F,  0.019611828F,     0.10479597F,      -0.00929849129F,
      -0.0203696787F,  0.107712455F,     0.0146919657F,    -0.0486794785F,
      0.103088051F,    -0.0728348345F,   0.0653668046F,    0.0145770265F,
      0.0916909873F,   -0.059741497F,    -0.0319049433F,   -0.0672868192F,
      -0.0825285539F,  0.114218511F,     0.0286401734F,    -0.0600038283F,
      0.0617442541F,   -0.0792733654F,   -0.0381871127F,   0.00685376069F,
      0.0963672474F,   0.0141452234F,    5.08748381E-5F,   -0.0389885753F,
      0.0785534605F,   -0.0116127906F,   -0.0340004638F,   0.100449622F,
      -0.0961476192F,  0.0282845553F,    -0.00806561392F,  -0.0431964956F,
      0.0225753896F,   0.0255904607F,    0.078341119F,     -0.0331335627F,
      -0.0758485422F,  0.0727643222F,    0.0357627906F,    0.0856166258F,
      0.0415225029F,   -0.0426905341F,   0.0482017845F,    0.0393980555F,
      -0.0489890613F,  -0.0393357575F,   -0.109117113F,    0.0645047426F,
      0.0618186966F,   0.0615730397F,    0.06668102F,      0.0919036269F,
      -0.115018696F,   -0.0749785528F,   0.0234291069F,    0.0634331927F,
      -0.0994005799F,  0.0964837298F,    0.010881938F,     -0.0440508947F,
      0.0397673175F,   0.0721863657F,    0.0793887153F,    -0.0175773259F,
      -0.0834545121F,  0.10891556F,      0.00776917953F,   0.0731939599F,
      -0.00193204917F, 0.0167509336F,    -0.12881963F,     -0.000736763468F,
      0.100411065F,    0.0345349461F,    -0.0964918062F,   -0.0705395F,
      0.108216859F,    0.0516036041F,    -0.00704609F,     0.10816355F,
      -0.0521329381F,  -0.0594045743F,   0.0417808704F,    -0.065915592F,
      0.0232499111F,   -0.0113303168F,   -0.0950511172F,   -0.0951097831F,
      0.0157954842F,   -0.105671763F,    0.0869447663F,    -0.088190645F,
      -0.0830750391F,  -0.0679672062F,   0.0628671F,       -0.05002781F,
      0.0492122024F,   0.0305454135F,    0.049446F,        -0.0905601904F,
